{"learner":{"attributes":{"scikit_learn":"{\"_estimator_type\": \"classifier\"}"},"feature_names":["ema_30","sma_7","stress_index","volume_ratio","score_lag1","score_lag3","score_lag7","tone_ema_7","tone_stress","conflict_ratio_7d","conflict_momentum"],"feature_types":["float","float","float","float","float","float","float","float","float","float","float"],"gradient_booster":{"model":{"cats":{"enc":[],"feature_segments":[],"sorted_idx":[]},"gbtree_model_param":{"num_parallel_tree":"1","num_trees":"300"},"iteration_indptr":[0,1,2,3,4,5,6,7,8,9,10,11,12,13,14,15,16,17,18,19,20,21,22,23,24,25,26,27,28,29,30,31,32,33,34,35,36,37,38,39,40,41,42,43,44,45,46,47,48,49,50,51,52,53,54,55,56,57,58,59,60,61,62,63,64,65,66,67,68,69,70,71,72,73,74,75,76,77,78,79,80,81,82,83,84,85,86,87,88,89,90,91,92,93,94,95,96,97,98,99,100,101,102,103,104,105,106,107,108,109,110,111,112,113,114,115,116,117,118,119,120,121,122,123,124,125,126,127,128,129,130,131,132,133,134,135,136,137,138,139,140,141,142,143,144,145,146,147,148,149,150,151,152,153,154,155,156,157,158,159,160,161,162,163,164,165,166,167,168,169,170,171,172,173,174,175,176,177,178,179,180,181,182,183,184,185,186,187,188,189,190,191,192,193,194,195,196,197,198,199,200,201,202,203,204,205,206,207,208,209,210,211,212,213,214,215,216,217,218,219,220,221,222,223,224,225,226,227,228,229,230,231,232,233,234,235,236,237,238,239,240,241,242,243,244,245,246,247,248,249,250,251,252,253,254,255,256,257,258,259,260,261,262,263,264,265,266,267,268,269,270,271,272,273,274,275,276,277,278,279,280,281,282,283,284,285,286,287,288,289,290,291,292,293,294,295,296,297,298,299,300],"tree_info":[0,0,0,0,0,0,0,0,0,0,0,0,0,0,0,0,0,0,0,0,0,0,0,0,0,0,0,0,0,0,0,0,0,0,0,0,0,0,0,0,0,0,0,0,0,0,0,0,0,0,0,0,0,0,0,0,0,0,0,0,0,0,0,0,0,0,0,0,0,0,0,0,0,0,0,0,0,0,0,0,0,0,0,0,0,0,0,0,0,0,0,0,0,0,0,0,0,0,0,0,0,0,0,0,0,0,0,0,0,0,0,0,0,0,0,0,0,0,0,0,0,0,0,0,0,0,0,0,0,0,0,0,0,0,0,0,0,0,0,0,0,0,0,0,0,0,0,0,0,0,0,0,0,0,0,0,0,0,0,0,0,0,0,0,0,0,0,0,0,0,0,0,0,0,0,0,0,0,0,0,0,0,0,0,0,0,0,0,0,0,0,0,0,0,0,0,0,0,0,0,0,0,0,0,0,0,0,0,0,0,0,0,0,0,0,0,0,0,0,0,0,0,0,0,0,0,0,0,0,0,0,0,0,0,0,0,0,0,0,0,0,0,0,0,0,0,0,0,0,0,0,0,0,0,0,0,0,0,0,0,0,0,0,0,0,0,0,0,0,0,0,0,0,0,0,0,0,0,0,0,0,0,0,0,0,0,0,0,0,0,0,0,0,0,0,0,0,0,0,0],"trees":[{"base_weights":[1.910275E-2,1.4816E0,-2.9825783E-1,1.6340807E-2,1.0232558E-3,-8.470588E-2,-1.7666666E-2,-2.15E-1,1.5578947E-2,1.4491803E-2,-3.2393443E-3],"categories":[],"categories_nodes":[],"categories_segments":[],"categories_sizes":[],"default_left":[0,0,0,0,0,0,0,0,0,0,0],"id":0,"left_children":[1,3,5,-1,-1,7,-1,9,-1,-1,-1],"loss_changes":[4.0650234E1,2.9452896E0,2.2164696E1,0E0,0E0,1.3844508E1,0E0,1.1234106E1,0E0,0E0,0E0],"parents":[2147483647,0,0,1,1,2,2,5,5,7,7],"right_children":[2,4,6,-1,-1,8,-1,10,-1,-1,-1],"split_conditions":[-7.9013556E-1,7.8203455E-2,5.9274006E1,1.6340807E-2,1.0232558E-3,3.2136335E0,-1.7666666E-2,4.0664288E1,1.5578947E-2,1.4491803E-2,-3.2393443E-3],"split_indices":[8,2,1,0,0,3,0,6,0,0,0],"split_type":[0,0,0,0,0,0,0,0,0,0,0],"sum_hessian":[8.5375E1,1.4625E1,7.075E1,1.29375E1,1.6875E0,6.275E1,8E0,5.9E1,3.75E0,2.8125E0,5.61875E1],"tree_param":{"num_deleted":"0","num_feature":"11","num_nodes":"11","size_leaf_vector":"1"}},{"base_weights":[8.746373E-2,-6.667074E-1,1.0989112E0,1.0865095E0,-9.7776556E-1,1.3238822E0,-1.3960248E-2,-1.9289102E-4,1.4674319E-2,-1.1511028E0,3.6418438E-1,1.4489735E0,-1.0616803E-2,-1.6833207E-2,-5.9985965E-3,1.2655676E-2,-4.102232E-3,1.1340517E-2,1.8315177E-2],"categories":[],"categories_nodes":[],"categories_segments":[],"categories_sizes":[],"default_left":[0,0,0,0,0,0,0,0,0,0,0,0,0,0,0,0,0,0,0],"id":1,"left_children":[1,3,5,7,9,11,-1,-1,-1,13,15,17,-1,-1,-1,-1,-1,-1,-1],"loss_changes":[6.585106E1,2.8011776E1,2.2537891E1,3.4900942E0,1.0398212E1,1.1834751E1,0E0,0E0,0E0,9.910255E0,4.487477E0,1.6169128E0,0E0,0E0,0E0,0E0,0E0,0E0,0E0],"parents":[2147483647,0,0,1,1,2,2,3,3,4,4,5,5,9,9,10,10,11,11],"right_children":[2,4,6,8,10,12,-1,-1,-1,14,16,18,-1,-1,-1,-1,-1,-1,-1],"split_conditions":[7.539683E-2,-7.9625434E-1,5.7276215E1,4.9453533E1,1.6520835E0,6.025769E1,-1.3960248E-2,-1.9289102E-4,1.4674319E-2,5.76323E1,4.9159313E1,1.1652079E0,-1.0616803E-2,-1.6833207E-2,-5.9985965E-3,1.2655676E-2,-4.102232E-3,1.1340517E-2,1.8315177E-2],"split_indices":[10,8,0,4,3,4,0,0,0,4,4,3,0,0,0,0,0,0,0],"split_type":[0,0,0,0,0,0,0,0,0,0,0,0,0,0,0,0,0,0,0],"sum_hessian":[8.431045E1,4.8436466E1,3.5873978E1,6.87462E0,4.1561848E1,3.3374058E1,2.4999208E0,1.9373707E0,4.937249E0,3.699943E1,4.5624146E0,3.21241E1,1.249959E0,1.7687397E1,1.9312037E1,1.8749406E0,2.6874743E0,1.993715E1,1.218695E1],"tree_param":{"num_deleted":"0","num_feature":"11","num_nodes":"19","size_leaf_vector":"1"}},{"base_weights":[7.038239E-2,-5.9011286E-1,1.18146E0,1.3270802E0,-1.0593245E0,1.3895519E0,-1.2589784E-1,1.4400896E0,3.127423E-3,-1.1987288E0,1.2504254E-2,1.6802205E-2,8.243863E-1,-1.1457956E-2,5.8463207E-3,3.1586995E-3,1.5937097E-2,-1.3452377E-2,7.925903E-3,-1.161775E-2,1.2593853E-2],"categories":[],"categories_nodes":[],"categories_segments":[],"categories_sizes":[],"default_left":[0,0,0,0,0,0,0,0,0,0,0,0,0,0,0,0,0,0,0,0,0],"id":2,"left_children":[1,3,5,7,9,11,13,15,-1,17,-1,-1,19,-1,-1,-1,-1,-1,-1,-1,-1],"loss_changes":[6.124834E1,4.843363E1,8.768009E0,5.993538E-1,1.5217316E1,2.7994156E0,4.4394617E0,9.0302086E-1,0E0,1.3009159E1,0E0,0E0,1.1192024E1,0E0,0E0,0E0,0E0,0E0,0E0,0E0,0E0],"parents":[2147483647,0,0,1,1,2,2,3,3,4,4,5,5,6,6,7,7,9,9,12,12],"right_children":[2,4,6,8,10,12,14,16,-1,18,-1,-1,20,-1,-1,-1,-1,-1,-1,-1,-1],"split_conditions":[1.0175438E-1,4.5726532E1,5.7819443E1,5.813E1,6.6275E1,5.7718445E1,1.0273534E0,4.9773197E1,3.127423E-3,6.439189E1,1.2504254E-2,1.6802205E-2,6.025769E1,-1.1457956E-2,5.8463207E-3,3.1586995E-3,1.5937097E-2,-1.3452377E-2,7.925903E-3,-1.161775E-2,1.2593853E-2],"split_indices":[10,6,1,5,6,6,3,4,0,4,0,0,6,0,0,0,0,0,0,0,0],"split_type":[0,0,0,0,0,0,0,0,0,0,0,0,0,0,0,0,0,0,0,0,0],"sum_hessian":[8.142973E1,5.130792E1,3.0121813E1,9.686708E0,4.1621212E1,2.5997429E1,4.1243834E0,8.249316E0,1.4373919E0,3.9746624E1,1.8745878E0,1.5748139E1,1.02492895E1,1.4997635E0,2.6246202E0,1.4373885E0,6.811928E0,3.737171E1,2.374912E0,1.4999647E0,8.749325E0],"tree_param":{"num_deleted":"0","num_feature":"11","num_nodes":"21","size_leaf_vector":"1"}},{"base_weights":[1.052275E-1,-7.730687E-1,1.1432376E0,7.698729E-1,-1.2245618E0,1.346482E0,-1.3830957E-2,1.2816269E0,-5.1303196E-1,-1.4951941E0,-4.198733E-1,1.6247579E0,6.8422735E-1,1.4105748E-2,3.37774E-3,-1.2313542E-2,5.788569E-3,-1.7315205E-2,4.252912E-4,7.276574E-3,-1.6115764E-2,1.6852193E-2,3.0317071E-3,-1.4391785E-2,1.39123155E-2],"categories":[],"categories_nodes":[],"categories_segments":[],"categories_sizes":[],"default_left":[0,0,0,0,0,0,0,0,0,0,0,0,0,0,0,0,0,0,0,0,0,0,0,0,0],"id":3,"left_children":[1,3,5,7,9,11,-1,13,15,17,19,21,23,-1,-1,-1,-1,-1,-1,-1,-1,-1,-1,-1,-1],"loss_changes":[8.130155E1,3.4636993E1,2.2841473E1,8.283421E0,7.413456E0,5.7278137E0,0E0,3.9066982E-1,3.866099E0,1.0347443E1,1.6300756E1,1.3822174E0,2.1791723E1,0E0,0E0,0E0,0E0,0E0,0E0,0E0,0E0,0E0,0E0,0E0,0E0],"parents":[2147483647,0,0,1,1,2,2,3,3,4,4,5,5,7,7,8,8,9,9,10,10,11,11,12,12],"right_children":[2,4,6,8,10,12,-1,14,16,18,20,22,24,-1,-1,-1,-1,-1,-1,-1,-1,-1,-1,-1,-1],"split_conditions":[7.539683E-2,4.7449574E1,5.7276215E1,1.2012044E0,2.7646843E-1,5.901984E1,-1.3830957E-2,4.6809338E1,1.1059058E0,6.183477E1,2.8716475E-1,-8.0014E-1,1.3576367E-1,1.4105748E-2,3.37774E-3,-1.2313542E-2,5.788569E-3,-1.7315205E-2,4.252912E-4,7.276574E-3,-1.6115764E-2,1.6852193E-2,3.0317071E-3,-1.4391785E-2,1.39123155E-2],"split_indices":[10,6,0,2,9,6,0,6,3,6,9,7,10,0,0,0,0,0,0,0,0,0,0,0,0],"split_type":[0,0,0,0,0,0,0,0,0,0,0,0,0,0,0,0,0,0,0,0,0,0,0,0,0],"sum_hessian":[8.716767E1,4.7302383E1,3.9865284E1,1.0498372E1,3.6804012E1,3.7365795E1,2.4994886E0,7.5611534E0,2.9372191E0,2.6806196E1,9.997816E0,2.518065E1,1.2185145E1,6.1240573E0,1.4370962E0,1.7498796E0,1.1873394E0,2.318239E1,3.6238048E0,5.24893E0,4.7488866E0,2.3743587E1,1.4370626E0,2.7496986E0,9.435447E0],"tree_param":{"num_deleted":"0","num_feature":"11","num_nodes":"25","size_leaf_vector":"1"}},{"base_weights":[-4.9540706E-2,-7.3128873E-1,9.586614E-1,9.2903084E-1,-1.2632661E0,1.1089002E0,-1.2108097E-2,1.2965927E0,-1.14813065E-2,-1.4114718E0,6.0814205E-3,1.6330665E0,6.140019E-1,5.8203256E-3,1.5808318E-2,-8.502847E-3,-1.8547453E-2,1.7381225E-2,3.0266896E-3,-5.5941255E-3,1.1493668E-2],"categories":[],"categories_nodes":[],"categories_segments":[],"categories_sizes":[],"default_left":[0,0,0,0,0,0,0,0,0,0,0,0,0,0,0,0,0,0,0,0,0],"id":4,"left_children":[1,3,5,7,9,11,-1,13,-1,15,-1,17,19,-1,-1,-1,-1,-1,-1,-1,-1],"loss_changes":[6.0922375E1,4.7945374E1,1.2978909E1,1.1712163E1,1.2184029E1,7.588032E0,0E0,1.2747574E0,0E0,7.5854797E0,0E0,1.4785385E0,1.2750975E1,0E0,0E0,0E0,0E0,0E0,0E0,0E0,0E0],"parents":[2147483647,0,0,1,1,2,2,3,3,4,4,5,5,7,7,9,9,11,11,12,12],"right_children":[2,4,6,8,10,12,-1,14,-1,16,-1,18,20,-1,-1,-1,-1,-1,-1,-1,-1],"split_conditions":[7.539683E-2,4.7449574E1,6.2534885E1,2.2145024E-1,6.504186E1,5.2601246E1,-1.2108097E-2,5.4385246E1,-1.14813065E-2,5.461041E1,6.0814205E-3,-1.5883993E0,5.681818E1,5.8203256E-3,1.5808318E-2,-8.502847E-3,-1.8547453E-2,1.7381225E-2,3.0266896E-3,-5.5941255E-3,1.1493668E-2],"split_indices":[10,6,4,8,4,1,0,4,0,1,0,7,5,0,0,0,0,0,0,0,0],"split_type":[0,0,0,0,0,0,0,0,0,0,0,0,0,0,0,0,0,0,0,0,0],"sum_hessian":[8.664815E1,5.191618E1,3.4731964E1,1.2371124E1,3.9545055E1,3.2982815E1,1.7491484E0,1.0871329E1,1.4997956E0,3.692036E1,2.6246948E0,1.4802758E1,1.8180058E1,4.0612044E0,6.8101244E0,1.7680508E1,1.9239851E1,1.3365692E1,1.4370666E0,5.6232643E0,1.2556793E1],"tree_param":{"num_deleted":"0","num_feature":"11","num_nodes":"21","size_leaf_vector":"1"}},{"base_weights":[5.4709874E-3,-6.5291494E-1,9.034419E-1,6.82738E-1,-1.072353E0,1.1870888E0,-1.504111E-2,1.4548941E0,-4.2840847E-1,-1.2194726E0,1.250809E-2,1.4640214E0,4.5998058E-1,1.6448362E-2,3.008787E-3,-1.3853337E-2,5.861758E-3,-6.881221E-3,-1.6587686E-2,1.5566609E-2,7.653525E-4,-1.3030767E-2,9.895048E-3],"categories":[],"categories_nodes":[],"categories_segments":[],"categories_sizes":[],"default_left":[0,0,0,0,0,0,0,0,0,0,0,0,0,0,0,0,0,0,0,0,0,0,0],"id":5,"left_children":[1,3,5,7,9,11,-1,13,15,17,-1,19,21,-1,-1,-1,-1,-1,-1,-1,-1,-1,-1],"loss_changes":[5.4230164E1,3.0373291E1,2.8282331E1,1.20357275E1,1.5418411E1,6.252014E0,0E0,1.0767899E0,6.83766E0,7.676708E0,0E0,2.9362373E0,1.1814577E1,0E0,0E0,0E0,0E0,0E0,0E0,0E0,0E0,0E0,0E0],"parents":[2147483647,0,0,1,1,2,2,3,3,4,4,5,5,7,7,8,8,9,9,11,11,12,12],"right_children":[2,4,6,8,10,12,-1,14,16,18,-1,20,22,-1,-1,-1,-1,-1,-1,-1,-1,-1,-1],"split_conditions":[7.539683E-2,4.7449574E1,5.705139E1,-1.6803364E0,6.6275E1,5.901984E1,-1.504111E-2,5.472782E1,5.4280056E1,5.461041E1,1.250809E-2,6.2527397E1,5.381844E1,1.6448362E-2,3.008787E-3,-1.3853337E-2,5.861758E-3,-6.881221E-3,-1.6587686E-2,1.5566609E-2,7.653525E-4,-1.3030767E-2,9.895048E-3],"split_indices":[10,6,0,7,6,6,0,5,0,1,0,5,0,0,0,0,0,0,0,0,0,0,0],"split_type":[0,0,0,0,0,0,0,0,0,0,0,0,0,0,0,0,0,0,0,0,0,0,0],"sum_hessian":[8.968709E1,5.1839947E1,3.784714E1,1.2181903E1,3.9658043E1,3.4348793E1,3.4983513E0,7.0578837E0,5.1240187E0,3.7783443E1,1.8745989E0,2.404123E1,1.0307562E1,5.6207767E0,1.4371071E0,2.4996073E0,2.6244116E0,1.8364601E1,1.9418844E1,2.2354656E1,1.6865728E0,1.9997333E0,8.307828E0],"tree_param":{"num_deleted":"0","num_feature":"11","num_nodes":"23","size_leaf_vector":"1"}},{"base_weights":[1.1802925E-2,-5.5851364E-1,1.0159304E0,9.710431E-1,-1.0189075E0,1.2745647E0,-1.3644751E-2,1.2805331E0,-1.0488298E-2,-3.8626164E-1,-1.6514014E0,8.168012E-1,1.6521774E-2,1.4578586E-2,9.489267E-4,-8.654318E-3,5.5571147E-3,-1.8189251E-2,1.24371E-3,1.3691587E-2,2.7397284E-3],"categories":[],"categories_nodes":[],"categories_segments":[],"categories_sizes":[],"default_left":[0,0,0,0,0,0,0,0,0,0,0,0,0,0,0,0,0,0,0,0,0],"id":6,"left_children":[1,3,5,7,9,11,-1,13,-1,15,17,19,-1,-1,-1,-1,-1,-1,-1,-1,-1],"loss_changes":[4.9203243E1,3.9510414E1,2.090969E1,9.565449E0,1.619616E1,3.3568192E0,0E0,2.2012596E0,0E0,1.0744965E1,6.6154137E0,3.9731846E0,0E0,0E0,0E0,0E0,0E0,0E0,0E0,0E0,0E0],"parents":[2147483647,0,0,1,1,2,2,3,3,4,4,5,5,7,7,9,9,10,10,11,11],"right_children":[2,4,6,8,10,12,-1,14,-1,16,18,20,-1,-1,-1,-1,-1,-1,-1,-1,-1],"split_conditions":[1.0175438E-1,4.7449574E1,5.705139E1,5.8159863E1,5.461041E1,1.715061E-1,-1.3644751E-2,1.2012044E0,-1.0488298E-2,5.3853825E1,6.504186E1,-1.5883993E0,1.6521774E-2,1.4578586E-2,9.489267E-4,-8.654318E-3,5.5571147E-3,-1.8189251E-2,1.24371E-3,1.3691587E-2,2.7397284E-3],"split_indices":[10,6,0,5,1,10,0,2,0,1,4,7,0,0,0,0,0,0,0,0,0],"split_type":[0,0,0,0,0,0,0,0,0,0,0,0,0,0,0,0,0,0,0,0,0],"sum_hessian":[8.384825E1,5.369511E1,3.0153141E1,1.2116007E1,4.1579105E1,2.765496E1,2.4981794E0,1.0866549E1,1.249459E0,2.1671347E1,1.9907759E1,1.4050292E1,1.360467E1,9.179687E0,1.6868614E0,1.4488593E1,7.182753E0,1.8220842E1,1.6869152E0,6.1182003E0,7.9320917E0],"tree_param":{"num_deleted":"0","num_feature":"11","num_nodes":"21","size_leaf_vector":"1"}},{"base_weights":[8.090728E-3,1.152222E0,-5.2802104E-1,-1.1804975E-2,1.359998E0,-7.295863E-1,2.8100154E-1,1.5176071E0,4.4740525E-1,3.5788533E-1,-9.5231205E-1,7.092214E-1,-1.2515631E-2,1.5864851E-2,2.867901E-3,-1.13738E-2,1.3962939E-2,7.4783866E-3,-1.0454115E-2,-1.4308769E-2,-2.4055905E-4,5.319572E-5,1.5113066E-2],"categories":[],"categories_nodes":[],"categories_segments":[],"categories_sizes":[],"default_left":[0,0,0,0,0,0,0,0,0,0,0,0,0,0,0,0,0,0,0,0,0,0,0],"id":7,"left_children":[1,3,5,-1,7,9,11,13,15,17,19,21,-1,-1,-1,-1,-1,-1,-1,-1,-1,-1,-1],"loss_changes":[5.284858E1,1.4959713E1,9.797697E0,0E0,2.8309708E0,1.18443775E1,8.906254E0,1.1772041E0,9.593894E0,5.503333E0,1.7396763E1,5.657757E0,0E0,0E0,0E0,0E0,0E0,0E0,0E0,0E0,0E0,0E0,0E0],"parents":[2147483647,0,0,1,1,2,2,4,4,5,5,6,6,7,7,8,8,9,9,10,10,11,11],"right_children":[2,4,6,-1,8,10,12,14,16,18,20,22,-1,-1,-1,-1,-1,-1,-1,-1,-1,-1,-1],"split_conditions":[-1.8769106E0,5.633832E-1,6.183477E1,-1.1804975E-2,5.4014915E1,4.7449574E1,5.7276215E1,5.7778625E1,5.497537E1,2.0974827E0,5.9460316E1,1.1652079E0,-1.2515631E-2,1.5864851E-2,2.867901E-3,-1.13738E-2,1.3962939E-2,7.4783866E-3,-1.0454115E-2,-1.4308769E-2,-2.4055905E-4,5.319572E-5,1.5113066E-2],"split_indices":[7,3,6,0,0,6,0,6,5,2,4,3,0,0,0,0,0,0,0,0,0,0,0],"split_type":[0,0,0,0,0,0,0,0,0,0,0,0,0,0,0,0,0,0,0,0,0,0,0],"sum_hessian":[8.406565E1,2.6515493E1,5.755016E1,1.7463362E0,2.4769157E1,4.6249134E1,1.1301026E1,2.0462624E1,4.3065333E0,7.682594E0,3.856654E1,9.303876E0,1.9971501E0,1.90276E1,1.4350234E0,1.4989812E0,2.8075519E0,6.433245E0,1.2493485E0,2.5018826E1,1.3547716E1,5.5577545E0,3.7461216E0],"tree_param":{"num_deleted":"0","num_feature":"11","num_nodes":"23","size_leaf_vector":"1"}},{"base_weights":[-3.3152565E-2,-5.856495E-1,8.7011445E-1,2.2235696E-1,-1.1566747E0,1.1272192E0,-1.3869402E-2,1.2738194E0,-2.5327367E-1,-1.3312459E0,3.0346584E-1,1.3582569E0,4.8852128E-1,1.5944974E-2,8.3940086E-4,-9.032292E-3,4.6771397E-3,2.5555014E-3,-1.5409007E-2,1.2874469E-2,-1.0444545E-2,2.2337364E-3,1.53531395E-2,-6.3138646E-3,1.1567799E-2],"categories":[],"categories_nodes":[],"categories_segments":[],"categories_sizes":[],"default_left":[0,0,0,0,0,0,0,0,0,0,0,0,0,0,0,0,0,0,0,0,0,0,0,0,0],"id":8,"left_children":[1,3,5,7,9,11,-1,13,15,17,19,21,23,-1,-1,-1,-1,-1,-1,-1,-1,-1,-1,-1,-1],"loss_changes":[4.2954987E1,2.5023354E1,2.0475197E1,1.1881556E1,8.5528145E0,3.562252E0,0E0,2.5091553E0,8.217875E0,9.984253E0,6.8388844E0,3.7556229E0,7.9796586E0,0E0,0E0,0E0,0E0,0E0,0E0,0E0,0E0,0E0,0E0,0E0,0E0],"parents":[2147483647,0,0,1,1,2,2,3,3,4,4,5,5,7,7,8,8,9,9,10,10,11,11,12,12],"right_children":[2,4,6,8,10,12,-1,14,16,18,20,22,24,-1,-1,-1,-1,-1,-1,-1,-1,-1,-1,-1,-1],"split_conditions":[1.0175438E-1,5.383656E1,5.7276215E1,-1.939879E0,6.4292595E1,7.8198755E-1,-1.3869402E-2,2.8057596E-1,-1.6835017E-2,4.5685936E1,5.7627815E1,4.746208E1,5.7583332E1,1.5944974E-2,8.3940086E-4,-9.032292E-3,4.6771397E-3,2.5555014E-3,-1.5409007E-2,1.2874469E-2,-1.0444545E-2,2.2337364E-3,1.53531395E-2,-6.3138646E-3,1.1567799E-2],"split_indices":[10,0,0,7,4,2,0,9,10,6,1,4,5,0,0,0,0,0,0,0,0,0,0,0,0],"split_type":[0,0,0,0,0,0,0,0,0,0,0,0,0,0,0,0,0,0,0,0,0,0,0,0,0],"sum_hessian":[8.410903E1,5.2474533E1,3.16345E1,2.1908815E1,3.0565716E1,2.8888636E1,2.7458658E0,6.36655E0,1.5542265E1,2.744162E1,3.1240964E0,2.0272308E1,8.616325E0,4.6809263E0,1.6856233E0,8.113786E0,7.4284797E0,3.1213615E0,2.432026E1,1.8746533E0,1.249443E0,3.1173556E0,1.7154953E1,3.1847188E0,5.431607E0],"tree_param":{"num_deleted":"0","num_feature":"11","num_nodes":"25","size_leaf_vector":"1"}},{"base_weights":[6.6736294E-3,-6.7309123E-1,9.735001E-1,9.769981E-1,-1.0703411E0,1.2949637E0,-5.8142704E-1,1.4158856E0,-3.061738E-1,-1.3631264E0,-2.0695591E-1,1.6156835E-2,5.509619E-1,-1.4821627E-2,7.6153497E-3,2.843301E-3,1.6035052E-2,-1.0520337E-2,5.5564838E-3,-1.5660118E-2,4.4461624E-3,-1.4277697E-2,3.5142347E-3,-1.2827303E-2,1.1248467E-2],"categories":[],"categories_nodes":[],"categories_segments":[],"categories_sizes":[],"default_left":[0,0,0,0,0,0,0,0,0,0,0,0,0,0,0,0,0,0,0,0,0,0,0,0,0],"id":9,"left_children":[1,3,5,7,9,11,13,15,17,19,21,-1,23,-1,-1,-1,-1,-1,-1,-1,-1,-1,-1,-1,-1],"loss_changes":[5.7821354E1,3.486364E1,1.8998783E1,6.4473515E0,1.0202042E1,6.169445E0,9.506258E0,1.063488E0,2.8425236E0,1.2240395E1,8.738807E0,0E0,1.2788902E1,0E0,0E0,0E0,0E0,0E0,0E0,0E0,0E0,0E0,0E0,0E0,0E0],"parents":[2147483647,0,0,1,1,2,2,3,3,4,4,5,5,6,6,7,7,8,8,9,9,10,10,12,12],"right_children":[2,4,6,8,10,12,14,16,18,20,22,-1,24,-1,-1,-1,-1,-1,-1,-1,-1,-1,-1,-1,-1],"split_conditions":[7.539683E-2,4.5685936E1,5.6877502E1,1.2012044E0,2.7599144E-1,5.7819443E1,1.2871938E0,4.9773197E1,1.0358566E0,6.439189E1,-1.3020328E0,1.6156835E-2,1.362963E-1,-1.4821627E-2,7.6153497E-3,2.843301E-3,1.6035052E-2,-1.0520337E-2,5.5564838E-3,-1.5660118E-2,4.4461624E-3,-1.4277697E-2,3.5142347E-3,-1.2827303E-2,1.1248467E-2],"split_indices":[10,6,1,2,9,6,3,4,3,4,2,0,10,0,0,0,0,0,0,0,0,0,0,0,0],"split_type":[0,0,0,0,0,0,0,0,0,0,0,0,0,0,0,0,0,0,0,0,0,0,0,0,0],"sum_hessian":[8.5936676E1,5.057696E1,3.5359715E1,9.481548E0,4.1095417E1,2.949372E1,5.865995E0,7.046065E0,2.435483E0,3.01698E1,1.0925615E1,1.9696882E1,9.796838E0,3.4936116E0,2.3723834E0,1.4356928E0,5.610372E0,1.2494644E0,1.1860187E0,2.7295433E1,2.8743668E0,2.9964414E0,7.9291735E0,1.9992757E0,7.797562E0],"tree_param":{"num_deleted":"0","num_feature":"11","num_nodes":"25","size_leaf_vector":"1"}},{"base_weights":[-3.8498584E-2,-7.593146E-1,9.7048855E-1,5.0031114E-1,-1.1352781E0,1.2194637E0,-1.4016151E-2,1.0721387E0,-6.9106424E-1,-1.2687342E0,4.4130075E-1,1.4764262E0,6.039943E-1,1.5751747E-2,1.5082272E-3,-1.3294367E-2,5.9930873E-3,-0E0,-1.4956524E-2,1.1631313E-3,5.9308526E-3,1.708484E-2,8.380169E-3,-1.3239939E-2,1.1958229E-2],"categories":[],"categories_nodes":[],"categories_segments":[],"categories_sizes":[],"default_left":[0,0,0,0,0,0,0,0,0,0,0,0,0,0,0,0,0,0,0,0,0,0,0,0,0],"id":10,"left_children":[1,3,5,7,9,11,-1,13,15,17,19,21,23,-1,-1,-1,-1,-1,-1,-1,-1,-1,-1,-1,-1],"loss_changes":[6.5549515E1,2.554905E1,2.3854687E1,9.449789E0,9.245743E0,4.3621445E0,0E0,3.7833948E0,4.7240562E0,1.0869156E1,5.119902E-2,1.8035088E0,1.5238934E1,0E0,0E0,0E0,0E0,0E0,0E0,0E0,0E0,0E0,0E0,0E0,0E0],"parents":[2147483647,0,0,1,1,2,2,3,3,4,4,5,5,7,7,8,8,9,9,10,10,11,11,12,12],"right_children":[2,4,6,8,10,12,-1,14,16,18,20,22,24,-1,-1,-1,-1,-1,-1,-1,-1,-1,-1,-1,-1],"split_conditions":[7.539683E-2,-1.939879E0,5.7276215E1,5.4013157E1,6.504186E1,5.901984E1,-1.4016151E-2,2.8057596E-1,5.6676094E1,4.9159313E1,-3.7488788E-1,5.3573658E1,1.3576367E-1,1.5751747E-2,1.5082272E-3,-1.3294367E-2,5.9930873E-3,-0E0,-1.4956524E-2,1.1631313E-3,5.9308526E-3,1.708484E-2,8.380169E-3,-1.3239939E-2,1.1958229E-2],"split_indices":[10,7,0,6,4,6,0,9,0,4,7,0,10,0,0,0,0,0,0,0,0,0,0,0,0],"split_type":[0,0,0,0,0,0,0,0,0,0,0,0,0,0,0,0,0,0,0,0,0,0,0,0,0],"sum_hessian":[8.814376E1,5.1616043E1,3.6527718E1,1.1727519E1,3.9888523E1,3.3535873E1,2.9918425E0,8.048486E0,3.679033E0,3.7014008E1,2.8745136E0,2.2556885E1,1.0978989E1,4.676751E0,3.371735E0,2.4929473E0,1.1860856E0,5.8009715E0,3.1213037E1,1.6871884E0,1.1873252E0,1.5199254E1,7.3576317E0,2.2483835E0,8.730605E0],"tree_param":{"num_deleted":"0","num_feature":"11","num_nodes":"25","size_leaf_vector":"1"}},{"base_weights":[8.143194E-3,-7.043545E-1,1.0775101E0,-1.2051755E0,3.2188665E-2,1.2893561E0,-1.2749852E-2,-1.3991628E0,4.4358602E-1,-4.7341174E-1,8.819424E-1,1.3538833E0,5.746989E-4,-0E0,-1.50955785E-2,1.1057858E-3,6.038901E-3,-8.192752E-3,9.535703E-3,1.17231915E-2,-2.1674082E-4,1.5719252E-2,9.912372E-3],"categories":[],"categories_nodes":[],"categories_segments":[],"categories_sizes":[],"default_left":[0,0,0,0,0,0,0,0,0,0,0,0,0,0,0,0,0,0,0,0,0,0,0],"id":11,"left_children":[1,3,5,7,9,11,-1,13,15,17,19,21,-1,-1,-1,-1,-1,-1,-1,-1,-1,-1,-1],"loss_changes":[6.401103E1,1.8725573E1,1.8403866E1,1.0334469E1,9.596072E0,2.2758598E0,0E0,4.333084E0,6.840503E-2,7.633663E0,2.3332734E0,5.3409195E-1,0E0,0E0,0E0,0E0,0E0,0E0,0E0,0E0,0E0,0E0,0E0],"parents":[2147483647,0,0,1,1,2,2,3,3,4,4,5,5,7,7,8,8,9,9,10,10,11,11],"right_children":[2,4,6,8,10,12,-1,14,16,18,20,22,-1,-1,-1,-1,-1,-1,-1,-1,-1,-1,-1],"split_conditions":[1.0175438E-1,2.632133E-1,5.705139E1,1.7064945E0,5.6859127E1,6.0035973E1,-1.2749852E-2,-2.546361E0,5.77178E1,3.670469E-1,-8.1140354E-2,-1.5883993E0,5.746989E-4,-0E0,-1.50955785E-2,1.1057858E-3,6.038901E-3,-8.192752E-3,9.535703E-3,1.17231915E-2,-2.1674082E-4,1.5719252E-2,9.912372E-3],"split_indices":[10,9,0,3,4,4,0,2,0,9,10,7,0,0,0,0,0,0,0,0,0,0,0],"split_type":[0,0,0,0,0,0,0,0,0,0,0,0,0,0,0,0,0,0,0,0,0,0,0],"sum_hessian":[8.196756E1,4.934068E1,3.2626884E1,2.907221E1,2.0268469E1,3.0385086E1,2.2417977E0,2.6201475E1,2.8707335E0,1.2911423E1,7.357047E0,2.8701471E1,1.6836151E0,1.9315459E0,2.426993E1,1.6846817E0,1.1860518E0,1.0791733E1,2.1196895E0,5.426535E0,1.9305122E0,1.566968E1,1.3031792E1],"tree_param":{"num_deleted":"0","num_feature":"11","num_nodes":"23","size_leaf_vector":"1"}},{"base_weights":[3.3641893E-2,-6.693692E-1,1.0888429E0,8.3890826E-1,-1.1784399E0,1.2465837E0,-1.1577995E-2,1.1798749E0,-1.1087831E-2,8.8038737E-1,-1.4118146E0,1.4679613E0,5.240062E-1,1.3382406E-2,8.9309027E-4,8.646513E-4,1.2805168E-2,-8.126755E-4,-1.5800558E-2,1.5250135E-2,2.8552478E-3,9.975344E-3,-4.478627E-3],"categories":[],"categories_nodes":[],"categories_segments":[],"categories_sizes":[],"default_left":[0,0,0,0,0,0,0,0,0,0,0,0,0,0,0,0,0,0,0,0,0,0,0],"id":12,"left_children":[1,3,5,7,9,11,-1,13,-1,15,17,19,21,-1,-1,-1,-1,-1,-1,-1,-1,-1,-1],"loss_changes":[6.4035255E1,4.075377E1,1.3691826E1,1.0341997E1,2.0108307E1,4.277519E0,0E0,1.826725E0,0E0,1.2007103E0,7.6734085E0,1.0324326E0,4.8056445E0,0E0,0E0,0E0,0E0,0E0,0E0,0E0,0E0,0E0,0E0],"parents":[2147483647,0,0,1,1,2,2,3,3,4,4,5,5,7,7,9,9,10,10,11,11,12,12],"right_children":[2,4,6,8,10,12,-1,14,-1,16,18,20,22,-1,-1,-1,-1,-1,-1,-1,-1,-1,-1],"split_conditions":[1.0175438E-1,4.6809338E1,5.7276215E1,3.0192074E-1,-1.026617E0,9.7351664E-1,-1.1577995E-2,2.0974827E0,-1.1087831E-2,4.938806E1,5.219598E1,2.9918587E-1,5.407412E1,1.3382406E-2,8.9309027E-4,8.646513E-4,1.2805168E-2,-8.126755E-4,-1.5800558E-2,1.5250135E-2,2.8552478E-3,9.975344E-3,-4.478627E-3],"split_indices":[10,6,0,8,8,2,0,2,0,5,0,8,0,0,0,0,0,0,0,0,0,0,0],"split_type":[0,0,0,0,0,0,0,0,0,0,0,0,0,0,0,0,0,0,0,0,0,0,0],"sum_hessian":[8.4283005E1,5.0745495E1,3.3537514E1,1.2592374E1,3.8153122E1,3.1794788E1,1.7427241E0,1.10955305E1,1.4968433E0,3.5585697E0,3.459455E1,2.3442657E1,8.352131E0,9.410229E0,1.6853024E0,1.6837485E0,1.8748212E0,4.116485E0,3.0478065E1,2.2006556E1,1.4361031E0,5.6673083E0,2.6848226E0],"tree_param":{"num_deleted":"0","num_feature":"11","num_nodes":"23","size_leaf_vector":"1"}},{"base_weights":[-1.5097703E-1,-9.8306316E-1,6.4662564E-1,7.9386824E-1,-1.2695878E0,8.983289E-1,-1.4408369E-2,1.4954399E-2,-9.9780625E-3,1.429376E-3,-1.3506967E0,3.723214E-1,1.3215878E0,-1.6206563E-2,-6.4921635E-3,8.709691E-3,-1.4291939E-2,1.6513893E-2,8.718923E-3],"categories":[],"categories_nodes":[],"categories_segments":[],"categories_sizes":[],"default_left":[0,0,0,0,0,0,0,0,0,0,0,0,0,0,0,0,0,0,0],"id":13,"left_children":[1,3,5,7,9,11,-1,-1,-1,-1,13,15,17,-1,-1,-1,-1,-1,-1],"loss_changes":[5.293418E1,2.09119E1,2.2651232E1,9.061567E0,4.2112427E0,7.5815296E0,0E0,0E0,0E0,0E0,4.8438873E0,1.7364077E1,1.2767601E0,0E0,0E0,0E0,0E0,0E0,0E0],"parents":[2147483647,0,0,1,1,2,2,3,3,4,4,5,5,10,10,11,11,12,12],"right_children":[2,4,6,8,10,12,-1,-1,-1,-1,14,16,18,-1,-1,-1,-1,-1,-1],"split_conditions":[3.3333335E-2,-2.4885802E0,5.705139E1,5.8159863E1,-3.2976606E-1,1.1764706E-1,-1.4408369E-2,1.4954399E-2,-9.9780625E-3,1.429376E-3,5.651396E1,5.407412E1,5.2601246E1,-1.6206563E-2,-6.4921635E-3,8.709691E-3,-1.4291939E-2,1.6513893E-2,8.718923E-3],"split_indices":[10,7,0,5,10,10,0,0,0,0,0,0,1,0,0,0,0,0,0],"split_type":[0,0,0,0,0,0,0,0,0,0,0,0,0,0,0,0,0,0,0],"sum_hessian":[7.77508E1,3.8000374E1,3.9750423E1,4.9822717E0,3.30181E1,3.6024235E1,3.7261913E0,3.739239E0,1.2430327E0,1.6846379E0,3.1333464E1,1.700593E1,1.9018305E1,2.157687E1,9.756593E0,1.3767281E1,3.2386498E0,9.301835E0,9.716469E0],"tree_param":{"num_deleted":"0","num_feature":"11","num_nodes":"19","size_leaf_vector":"1"}},{"base_weights":[-9.689548E-2,1.2059143E0,-6.913778E-1,1.4849619E0,-5.48113E-1,-1.2333187E0,4.472712E-1,-2.733938E-4,1.6336814E-2,-1.2378168E-2,6.007239E-3,-1.3093933E0,5.722243E-3,-1.38897E-2,8.2204854E-1,-1.3894558E-2,3.5486578E-3,1.0951857E-2,-1.0782728E-2],"categories":[],"categories_nodes":[],"categories_segments":[],"categories_sizes":[],"default_left":[0,0,0,0,0,0,0,0,0,0,0,0,0,0,0,0,0,0,0],"id":14,"left_children":[1,3,5,7,9,11,13,-1,-1,-1,-1,15,-1,-1,17,-1,-1,-1,-1],"loss_changes":[6.2978935E1,1.3376076E1,3.50829E1,5.219967E0,4.117473E0,6.063568E0,1.3939276E1,0E0,0E0,0E0,0E0,5.5223236E0,0E0,0E0,9.583815E0,0E0,0E0,0E0,0E0],"parents":[2147483647,0,0,1,1,2,2,3,3,4,4,5,5,6,6,11,11,14,14],"right_children":[2,4,6,8,10,12,14,-1,-1,-1,-1,16,-1,-1,18,-1,-1,-1,-1],"split_conditions":[-1.8769106E0,5.7778625E1,8.569545E-2,7.210318E-1,6.025769E1,3.2136335E0,-1.4154482E-1,-2.733938E-4,1.6336814E-2,-1.2378168E-2,6.007239E-3,6.6275E1,5.722243E-3,-1.38897E-2,5.9635838E1,-1.3894558E-2,3.5486578E-3,1.0951857E-2,-1.0782728E-2],"split_indices":[7,6,10,3,6,3,2,0,0,0,0,4,0,0,4,0,0,0,0],"split_type":[0,0,0,0,0,0,0,0,0,0,0,0,0,0,0,0,0,0,0],"sum_hessian":[7.930582E1,2.447408E1,5.4831738E1,2.1296446E1,3.1776335E0,3.7153286E1,1.7678452E1,1.9196503E0,1.9376795E1,1.9915808E0,1.1860526E0,3.596799E1,1.1852968E0,2.4926476E0,1.5185803E1,3.4531967E1,1.4360216E0,1.3693862E1,1.4919407E0],"tree_param":{"num_deleted":"0","num_feature":"11","num_nodes":"19","size_leaf_vector":"1"}},{"base_weights":[7.832843E-2,-5.670884E-1,9.6722364E-1,1.0286777E0,-8.521812E-1,1.1329737E0,-1.1952579E-2,1.3925284E-2,-2.2341464E-4,-9.826886E-1,1.245479E-2,1.2616798E0,-3.440713E-1,4.653075E-3,-1.1082948E-2,1.3262944E-2,4.067229E-4,5.07871E-3,-1.0627675E-2],"categories":[],"categories_nodes":[],"categories_segments":[],"categories_sizes":[],"default_left":[0,0,0,0,0,0,0,0,0,0,0,0,0,0,0,0,0,0,0],"id":15,"left_children":[1,3,5,7,9,11,-1,-1,-1,13,-1,15,17,-1,-1,-1,-1,-1,-1],"loss_changes":[4.870302E1,2.3220448E1,1.4148777E1,3.1701698E0,1.2778297E1,6.9375763E0,0E0,0E0,0E0,7.932995E0,0E0,2.2788086E0,2.6934242E0,0E0,0E0,0E0,0E0,0E0,0E0],"parents":[2147483647,0,0,1,1,2,2,3,3,4,4,5,5,9,9,11,11,12,12],"right_children":[2,4,6,8,10,12,-1,-1,-1,14,-1,16,18,-1,-1,-1,-1,-1,-1],"split_conditions":[7.419018E-2,4.5685936E1,5.7276215E1,1.2012044E0,6.6275E1,6.2527397E1,-1.1952579E-2,1.3925284E-2,-2.2341464E-4,-2.4098294E0,1.245479E-2,2.611951E0,-1.5320823E-1,4.653075E-3,-1.1082948E-2,1.3262944E-2,4.067229E-4,5.07871E-3,-1.0627675E-2],"split_indices":[10,6,0,2,6,5,0,0,0,7,0,2,8,0,0,0,0,0,0],"split_type":[0,0,0,0,0,0,0,0,0,0,0,0,0,0,0,0,0,0,0],"sum_hessian":[8.2865845E1,4.8152435E1,3.4713413E1,6.850235E0,4.13022E1,3.2727253E1,1.9861604E0,4.9179215E0,1.9323133E0,3.942834E1,1.8738582E0,3.0300457E1,2.4267972E0,2.8677802E0,3.6560562E1,2.8617891E1,1.682564E0,1.1810198E0,1.2457774E0],"tree_param":{"num_deleted":"0","num_feature":"11","num_nodes":"19","size_leaf_vector":"1"}},{"base_weights":[1.0485428E-2,-8.1011975E-1,6.998477E-1,5.7651126E-1,-1.2435858E0,1.1879078E0,-2.1561722E-1,9.576575E-1,-1.0115011E-2,3.5043257E-1,-1.4586177E0,1.4725286E0,3.458825E-1,3.595068E-1,-1.4890366E-2,-2.7159638E-5,1.2754551E-2,6.365185E-3,-0E0,3.8666239E-3,-1.5903873E-2,1.54882325E-2,2.0446999E-3,-7.021583E-3,1.1860742E-2,-1.3247914E-2,9.051595E-3],"categories":[],"categories_nodes":[],"categories_segments":[],"categories_sizes":[],"default_left":[0,0,0,0,0,0,0,0,0,0,0,0,0,0,0,0,0,0,0,0,0,0,0,0,0,0,0],"id":16,"left_children":[1,3,5,7,9,11,13,15,-1,17,19,21,23,25,-1,-1,-1,-1,-1,-1,-1,-1,-1,-1,-1,-1,-1],"loss_changes":[4.5437557E1,2.2793644E1,1.9887648E1,6.6220765E0,1.0311756E1,6.1970596E0,1.23504E1,2.604146E0,0E0,3.7966394E-1,6.8526E0,1.5478859E0,8.503928E0,1.1963777E1,0E0,0E0,0E0,0E0,0E0,0E0,0E0,0E0,0E0,0E0,0E0,0E0,0E0],"parents":[2147483647,0,0,1,1,2,2,3,3,4,4,5,5,6,6,7,7,9,9,10,10,11,11,12,12,13,13],"right_children":[2,4,6,8,10,12,14,16,-1,18,20,22,24,26,-1,-1,-1,-1,-1,-1,-1,-1,-1,-1,-1,-1,-1],"split_conditions":[3.3333335E-2,4.6809338E1,5.4092857E1,5.8159863E1,6.0508174E-1,-1.2621087E0,5.7819443E1,5.2902893E1,-1.0115011E-2,5.621875E1,-3.2976606E-1,6.01625E1,5.681818E1,5.5065525E1,-1.4890366E-2,-2.7159638E-5,1.2754551E-2,6.365185E-3,-0E0,3.8666239E-3,-1.5903873E-2,1.54882325E-2,2.0446999E-3,-7.021583E-3,1.1860742E-2,-1.3247914E-2,9.051595E-3],"split_indices":[10,6,0,5,3,7,1,0,0,6,10,5,5,0,0,0,0,0,0,0,0,0,0,0,0,0,0],"split_type":[0,0,0,0,0,0,0,0,0,0,0,0,0,0,0,0,0,0,0,0,0,0,0,0,0,0,0],"sum_hessian":[7.833902E1,3.5618786E1,4.272023E1,8.349275E0,2.726951E1,2.7741884E1,1.4978347E1,7.104103E0,1.2451715E0,3.1112525E0,2.4158258E1,2.008516E1,7.6567245E0,1.0758541E1,4.2198057E0,1.9345994E0,5.169504E0,1.1832045E0,1.9280479E0,1.4306352E0,2.2727623E1,1.8662056E1,1.4231043E0,3.427094E0,4.2296305E0,2.238295E0,8.520246E0],"tree_param":{"num_deleted":"0","num_feature":"11","num_nodes":"27","size_leaf_vector":"1"}},{"base_weights":[-5.9641025E-4,-5.529911E-1,9.0846986E-1,9.745321E-1,-9.222606E-1,-1.1342104E-2,1.0529176E0,1.3623964E0,-1.0064284E-2,-1.0560281E0,1.2339268E-2,1.1353445E0,-5.643407E-4,1.5193433E-2,2.5659017E-3,-5.1043467E-3,-1.5390296E-2,7.0379083E-3,1.4484053E-2],"categories":[],"categories_nodes":[],"categories_segments":[],"categories_sizes":[],"default_left":[0,0,0,0,0,0,0,0,0,0,0,0,0,0,0,0,0,0,0],"id":17,"left_children":[1,3,5,7,9,-1,11,13,-1,15,-1,17,-1,-1,-1,-1,-1,-1,-1],"loss_changes":[4.14787E1,2.9938026E1,1.0385874E1,9.441972E0,1.3408836E1,0E0,2.8863106E0,1.0314312E0,0E0,9.592659E0,0E0,2.5161972E0,0E0,0E0,0E0,0E0,0E0,0E0,0E0],"parents":[2147483647,0,0,1,1,2,2,3,3,4,4,6,6,7,7,9,9,11,11],"right_children":[2,4,6,8,10,-1,12,14,-1,16,-1,18,-1,-1,-1,-1,-1,-1,-1],"split_conditions":[1.0175438E-1,4.6809338E1,7.146431E-1,2.2145024E-1,6.439189E1,-1.1342104E-2,5.9635838E1,5.9164444E1,-1.0064284E-2,5.461041E1,1.2339268E-2,5.681818E1,-5.643407E-4,1.5193433E-2,2.5659017E-3,-5.1043467E-3,-1.5390296E-2,7.0379083E-3,1.4484053E-2],"split_indices":[10,6,3,8,6,0,4,4,0,1,0,5,0,0,0,0,0,0,0],"split_type":[0,0,0,0,0,0,0,0,0,0,0,0,0,0,0,0,0,0,0],"sum_hessian":[8.067039E1,5.0491123E1,3.0179266E1,9.457845E0,4.103328E1,1.4949119E0,2.8684353E1,8.212587E0,1.2452569E0,3.9160423E1,1.8728583E0,2.6762558E1,1.9217956E0,6.7851686E0,1.4274188E0,1.9451757E1,1.9708664E1,1.27517805E1,1.4010777E1],"tree_param":{"num_deleted":"0","num_feature":"11","num_nodes":"19","size_leaf_vector":"1"}},{"base_weights":[1.1221665E-2,-7.177657E-1,6.5519685E-1,2.1045541E-2,-1.2689024E0,8.634913E-1,-8.767933E-1,-6.263987E-1,7.796114E-1,-1.3989935E0,3.6807917E-3,1.0394512E0,-3.4553123E-1,6.40336E-3,-1.4146568E-2,8.924626E-3,-1.142355E-2,1.201129E-2,-9.565047E-3,3.5645037E-3,-1.5460496E-2,7.589928E-3,1.56208025E-2,-1.2409887E-2,5.2268994E-3],"categories":[],"categories_nodes":[],"categories_segments":[],"categories_sizes":[],"default_left":[0,0,0,0,0,0,0,0,0,0,0,0,0,0,0,0,0,0,0,0,0,0,0,0,0],"id":18,"left_children":[1,3,5,7,9,11,13,15,17,19,-1,21,23,-1,-1,-1,-1,-1,-1,-1,-1,-1,-1,-1,-1],"loss_changes":[4.0240086E1,1.6498287E1,1.5301647E1,9.372796E0,5.5345955E0,9.084663E0,5.7933173E0,9.058505E0,7.6368866E0,6.259575E0,0E0,3.8357086E0,5.2668533E0,0E0,0E0,0E0,0E0,0E0,0E0,0E0,0E0,0E0,0E0,0E0,0E0],"parents":[2147483647,0,0,1,1,2,2,3,3,4,4,5,5,6,6,7,7,8,8,9,9,11,11,12,12],"right_children":[2,4,6,8,10,12,14,16,18,20,-1,22,24,-1,-1,-1,-1,-1,-1,-1,-1,-1,-1,-1,-1],"split_conditions":[3.295979E-2,5.3751057E1,5.7276215E1,5.76323E1,6.6275E1,5.8236843E1,4.247991E-2,-2.509241E0,-8.1140354E-2,4.1608696E1,3.6807917E-3,2.1174005E-1,1.0555556E-1,6.40336E-3,-1.4146568E-2,8.924626E-3,-1.142355E-2,1.201129E-2,-9.565047E-3,3.5645037E-3,-1.5460496E-2,7.589928E-3,1.56208025E-2,-1.2409887E-2,5.2268994E-3],"split_indices":[10,5,0,4,4,4,10,7,10,4,0,10,10,0,0,0,0,0,0,0,0,0,0,0,0],"split_type":[0,0,0,0,0,0,0,0,0,0,0,0,0,0,0,0,0,0,0,0,0,0,0,0,0],"sum_hessian":[8.372912E1,3.914578E1,4.4583344E1,1.7058647E1,2.208713E1,3.9688763E1,4.8945813E0,9.226303E0,7.8323445E0,2.0652355E1,1.4347748E0,3.4841003E1,4.84776E0,1.1825559E0,3.7120252E0,2.1052809E0,7.1210217E0,6.5965075E0,1.235837E0,1.433724E0,1.9218632E1,2.439403E1,1.0446973E1,2.23179E0,2.6159701E0],"tree_param":{"num_deleted":"0","num_feature":"11","num_nodes":"25","size_leaf_vector":"1"}},{"base_weights":[8.1055276E-2,-4.7672448E-1,1.0212166E0,8.03726E-1,-7.9349315E-1,1.435976E0,5.3060293E-1,1.1333702E0,-9.776279E-3,5.2486223E-1,-1.0663811E0,1.9207125E-3,1.5319222E0,1.2057251E0,-1.6027437E-1,2.3824987E-3,1.4894562E-2,1.0581749E-2,-1.0751563E-2,-1.5334751E-2,-4.6764915E-3,1.647126E-2,1.9529246E-3,1.4462135E-2,1.0161045E-3,-1.4581642E-2,7.198963E-3],"categories":[],"categories_nodes":[],"categories_segments":[],"categories_sizes":[],"default_left":[0,0,0,0,0,0,0,0,0,0,0,0,0,0,0,0,0,0,0,0,0,0,0,0,0,0,0],"id":19,"left_children":[1,3,5,7,9,11,13,15,-1,17,19,-1,21,23,25,-1,-1,-1,-1,-1,-1,-1,-1,-1,-1,-1,-1],"loss_changes":[4.538032E1,2.265343E1,5.598564E0,7.7000537E0,1.6472752E1,1.534275E0,7.974524E0,2.6473608E0,0E0,8.10499E0,9.40641E0,0E0,1.8572693E0,1.9591618E0,1.1340692E1,0E0,0E0,0E0,0E0,0E0,0E0,0E0,0E0,0E0,0E0,0E0,0E0],"parents":[2147483647,0,0,1,1,2,2,3,3,4,4,5,5,6,6,7,7,9,9,10,10,12,12,13,13,14,14],"right_children":[2,4,6,8,10,12,14,16,-1,18,20,-1,22,24,26,-1,-1,-1,-1,-1,-1,-1,-1,-1,-1,-1,-1],"split_conditions":[1.0175438E-1,-6.329802E-1,-1.5883993E0,5.8159863E1,4.7449574E1,4.5917614E1,1.7643473E-1,4.8470898E1,-9.776279E-3,2.2145024E-1,3.953392E-1,1.9207125E-3,6.01625E1,8.5239106E-1,1.7593984E-1,2.3824987E-3,1.4894562E-2,1.0581749E-2,-1.0751563E-2,-1.5334751E-2,-4.6764915E-3,1.647126E-2,1.9529246E-3,1.4462135E-2,1.0161045E-3,-1.4581642E-2,7.198963E-3],"split_indices":[10,8,7,5,6,5,9,5,0,8,8,0,5,8,10,0,0,0,0,0,0,0,0,0,0,0,0],"split_type":[0,0,0,0,0,0,0,0,0,0,0,0,0,0,0,0,0,0,0,0,0,0,0,0,0,0,0],"sum_hessian":[8.450492E1,5.3280933E1,3.1223991E1,1.0199459E1,4.3081474E1,1.5765385E1,1.5458606E1,8.961084E0,1.2383752E0,7.1669993E0,3.5914474E1,1.4185499E0,1.4346834E1,7.5147552E0,7.9438505E0,3.1052055E0,5.855879E0,5.676182E0,1.4908175E0,1.920426E1,1.6710215E1,1.2925662E1,1.4211727E0,5.8419123E0,1.6728433E0,2.9907117E0,4.953139E0],"tree_param":{"num_deleted":"0","num_feature":"11","num_nodes":"27","size_leaf_vector":"1"}},{"base_weights":[-4.2051226E-2,5.3661346E-1,-1.0611206E0,8.290603E-1,-2.0293997E-1,-1.3442603E0,6.140112E-1,1.235811E0,3.0852896E-1,-1.1313156E0,6.145048E-1,5.0736903E-3,-1.4540192E0,1.2878452E-2,-1.5818056E-3,1.291823E-2,2.2393942E-3,-3.3048047E-3,1.0250378E-2,5.853926E-3,-1.5392816E-2,-9.5822215E-3,9.983758E-3,-1.7055733E-2,-4.626707E-3],"categories":[],"categories_nodes":[],"categories_segments":[],"categories_sizes":[],"default_left":[0,0,0,0,0,0,0,0,0,0,0,0,0,0,0,0,0,0,0,0,0,0,0,0,0],"id":20,"left_children":[1,3,5,7,9,11,13,15,17,19,21,-1,23,-1,-1,-1,-1,-1,-1,-1,-1,-1,-1,-1,-1],"loss_changes":[4.9661366E1,1.1832754E1,1.5372639E1,7.66555E0,1.2819174E1,6.211853E0,2.9431808E0,7.665558E-1,8.847272E0,6.4996996E0,6.424376E0,0E0,5.3027954E0,0E0,0E0,0E0,0E0,0E0,0E0,0E0,0E0,0E0,0E0,0E0,0E0],"parents":[2147483647,0,0,1,1,2,2,3,3,4,4,5,5,6,6,7,7,8,8,9,9,10,10,12,12],"right_children":[2,4,6,8,10,12,14,16,18,20,22,-1,24,-1,-1,-1,-1,-1,-1,-1,-1,-1,-1,-1,-1],"split_conditions":[-1.0913795E0,5.4794003E1,1.647609E0,-1.8769106E0,8.848227E-1,4.6616104E1,1.7405164E0,5.7778625E1,-3.5963574E-1,7.8203455E-2,5.647222E1,5.0736903E-3,6.1270924E1,1.2878452E-2,-1.5818056E-3,1.291823E-2,2.2393942E-3,-3.3048047E-3,1.0250378E-2,5.853926E-3,-1.5392816E-2,-9.5822215E-3,9.983758E-3,-1.7055733E-2,-4.626707E-3],"split_indices":[7,1,3,7,3,6,3,6,2,2,5,0,6,0,0,0,0,0,0,0,0,0,0,0,0],"split_type":[0,0,0,0,0,0,0,0,0,0,0,0,0,0,0,0,0,0,0,0,0,0,0,0,0],"sum_hessian":[8.2160164E1,5.2642906E1,2.9517258E1,3.7735195E1,1.4907709E1,2.5469486E1,4.047771E0,2.0303505E1,1.7431692E1,6.857726E0,8.049983E0,1.1715637E0,2.4297922E1,1.8741034E0,2.1736674E0,1.8882757E1,1.4207473E0,9.42517E0,8.006521E0,1.1862019E0,5.671524E0,1.2346963E0,6.8152866E0,1.8725107E1,5.572816E0],"tree_param":{"num_deleted":"0","num_feature":"11","num_nodes":"25","size_leaf_vector":"1"}},{"base_weights":[-2.462898E-2,1.1806955E0,-3.5861817E-1,3.1572822E-1,1.4521162E-2,2.0896836E-1,-7.87039E-1,-1.8183461E-3,7.195323E-3,-1.5013947E-2,1.2607831E-2,-1.0573783E0,5.452629E-1,-4.0762248E-3,1.04362E-2,6.432527E-3,-1.2429865E-2,1.3680865E-2,-3.7017216E-3],"categories":[],"categories_nodes":[],"categories_segments":[],"categories_sizes":[],"default_left":[0,0,0,0,0,0,0,0,0,0,0,0,0,0,0,0,0,0,0],"id":21,"left_children":[1,3,5,7,-1,9,11,-1,-1,13,-1,15,17,-1,-1,-1,-1,-1,-1],"loss_changes":[3.2270767E1,3.444395E0,1.5526636E1,1.2929299E0,0E0,6.683853E0,1.3657452E1,0E0,0E0,1.0252821E1,0E0,1.0479454E1,5.652711E0,0E0,0E0,0E0,0E0,0E0,0E0],"parents":[2147483647,0,0,1,1,2,2,3,3,5,5,6,6,9,9,11,11,12,12],"right_children":[2,4,6,8,-1,10,12,-1,-1,14,-1,16,18,-1,-1,-1,-1,-1,-1],"split_conditions":[-6.1812854E-1,9.588029E-1,5.386004E1,5.653935E1,1.4521162E-2,3.324629E0,1.2958513E0,-1.8183461E-3,7.195323E-3,5.813E1,1.2607831E-2,-2.546361E0,5.736334E1,-4.0762248E-3,1.04362E-2,6.432527E-3,-1.2429865E-2,1.3680865E-2,-3.7017216E-3],"split_indices":[8,3,0,0,0,3,3,0,0,4,0,2,0,0,0,0,0,0,0],"split_type":[0,0,0,0,0,0,0,0,0,0,0,0,0,0,0,0,0,0,0],"sum_hessian":[7.831521E1,1.6377249E1,6.1937958E1,4.516303E0,1.1860947E1,2.6761812E1,3.5176144E1,2.1585784E0,2.3577247E0,2.2797724E1,3.964088E0,2.9476446E1,5.6996975E0,1.714769E1,5.6500344E0,2.6048808E0,2.6871565E1,2.7988074E0,2.9008904E0],"tree_param":{"num_deleted":"0","num_feature":"11","num_nodes":"19","size_leaf_vector":"1"}},{"base_weights":[-8.595219E-3,1.4219507E0,-3.3678976E-1,1.513912E-2,2.4498317E-3,1.1002342E0,-4.770085E-1,1.0536727E-3,1.411247E-2,-2.97013E-1,-1.5823765E-2,-9.507353E-3,-7.7022595E-4],"categories":[],"categories_nodes":[],"categories_segments":[],"categories_sizes":[],"default_left":[0,0,0,0,0,0,0,0,0,0,0,0,0],"id":22,"left_children":[1,3,5,-1,-1,7,9,-1,-1,11,-1,-1,-1],"loss_changes":[3.9799744E1,1.1640377E0,1.4401249E1,0E0,0E0,1.6764503E0,1.2033196E1,0E0,0E0,7.901003E0,0E0,0E0,0E0],"parents":[2147483647,0,0,1,1,2,2,5,5,6,6,9,9],"right_children":[2,4,6,-1,-1,8,10,-1,-1,12,-1,-1,-1],"split_conditions":[-7.9013556E-1,5.614911E1,5.1073895E1,1.513912E-2,2.4498317E-3,5.08952E1,2.6708024E0,1.0536727E-3,1.411247E-2,5.196101E1,-1.5823765E-2,-9.507353E-3,-7.7022595E-4],"split_indices":[8,0,0,0,0,1,2,0,0,5,0,0,0],"split_type":[0,0,0,0,0,0,0,0,0,0,0,0,0],"sum_hessian":[8.298208E1,1.480634E1,6.8175735E1,1.338896E1,1.4173799E0,5.388835E0,6.2786903E1,1.6788507E0,3.7099843E0,5.5163395E1,7.6235065E0,1.2938663E1,4.222473E1],"tree_param":{"num_deleted":"0","num_feature":"11","num_nodes":"13","size_leaf_vector":"1"}},{"base_weights":[2.7844492E-2,-6.6015416E-1,8.7612754E-1,7.0397055E-1,-1.0648426E0,1.1639088E0,-1.4178481E-2,1.2530428E0,-5.261978E-1,-1.498874E0,-5.3891516E-1,1.5367125E-2,7.918172E-1,1.408995E-2,2.5600966E-3,-1.1958135E-2,5.827198E-3,-1.6722918E-2,1.8548877E-3,6.9586723E-3,-9.404974E-3,-1.2265529E-3,1.1889325E-2],"categories":[],"categories_nodes":[],"categories_segments":[],"categories_sizes":[],"default_left":[0,0,0,0,0,0,0,0,0,0,0,0,0,0,0,0,0,0,0,0,0,0,0],"id":23,"left_children":[1,3,5,7,9,11,-1,13,15,17,19,-1,21,-1,-1,-1,-1,-1,-1,-1,-1,-1,-1],"loss_changes":[5.0237686E1,2.6990156E1,2.7096493E1,8.436031E0,7.4486084E0,3.3875465E0,0E0,7.5368404E-1,3.8529613E0,6.1955414E0,9.814133E0,0E0,7.3881464E0,0E0,0E0,0E0,0E0,0E0,0E0,0E0,0E0,0E0,0E0],"parents":[2147483647,0,0,1,1,2,2,3,3,4,4,5,5,7,7,8,8,9,9,10,10,12,12],"right_children":[2,4,6,8,10,12,-1,14,16,18,20,-1,22,-1,-1,-1,-1,-1,-1,-1,-1,-1,-1],"split_conditions":[7.539683E-2,-6.329802E-1,5.6608097E1,5.383656E1,9.9800897E-1,5.2601246E1,-1.4178481E-2,-2.4098294E0,-2.1124897E0,6.6275E1,1.0519897E0,1.5367125E-2,5.681818E1,1.408995E-2,2.5600966E-3,-1.1958135E-2,5.827198E-3,-1.6722918E-2,1.8548877E-3,6.9586723E-3,-9.404974E-3,-1.2265529E-3,1.1889325E-2],"split_indices":[10,8,0,0,3,1,0,7,7,4,3,0,5,0,0,0,0,0,0,0,0,0,0],"split_type":[0,0,0,0,0,0,0,0,0,0,0,0,0,0,0,0,0,0,0,0,0,0,0],"sum_hessian":[8.405177E1,4.6467922E1,3.7583847E1,1.04057045E1,3.6062218E1,3.3870926E1,3.712922E0,7.2378592E0,3.1678448E0,1.863951E1,1.742271E1,1.5221558E1,1.8649368E1,5.8148384E0,1.4230208E0,1.9825228E0,1.185322E0,1.6959896E1,1.6796129E0,4.034777E0,1.3387933E1,5.779568E0,1.2869801E1],"tree_param":{"num_deleted":"0","num_feature":"11","num_nodes":"23","size_leaf_vector":"1"}},{"base_weights":[-1.2807691E-1,1.1927916E0,-4.0602857E-1,1.5094553E-2,6.1215628E-2,-8.389051E-2,-9.893575E-1,4.816124E-3,-2.1577463E-3,5.886724E-1,-7.2895896E-1,-1.2150425E0,9.268971E-3,-2.0061338E-3,9.003362E-3,4.3057515E-3,-1.4629223E-2,6.9548176E-3,-1.3579852E-2],"categories":[],"categories_nodes":[],"categories_segments":[],"categories_sizes":[],"default_left":[0,0,0,0,0,0,0,0,0,0,0,0,0,0,0,0,0,0,0],"id":24,"left_children":[1,3,5,-1,7,9,11,-1,-1,13,15,17,-1,-1,-1,-1,-1,-1,-1],"loss_changes":[3.0974537E1,5.0059547E0,1.28876915E1,0E0,6.3334054E-1,2.041718E1,1.177528E1,0E0,0E0,5.9124775E0,2.1177666E1,7.1414757E0,0E0,0E0,0E0,0E0,0E0,0E0,0E0],"parents":[2147483647,0,0,1,1,2,2,4,4,5,5,6,6,9,9,10,10,11,11],"right_children":[2,4,6,-1,8,10,12,-1,-1,14,16,18,-1,-1,-1,-1,-1,-1,-1],"split_conditions":[-7.9625434E-1,5.4014915E1,3.0192074E-1,1.5094553E-2,-1.7233838E0,5.4092857E1,3.324629E0,4.816124E-3,-2.1577463E-3,4.990244E1,1.7643473E-1,-2.0262156E0,9.268971E-3,-2.0061338E-3,9.003362E-3,4.3057515E-3,-1.4629223E-2,6.9548176E-3,-1.3579852E-2],"split_indices":[8,0,8,0,8,0,3,0,0,5,9,2,0,0,0,0,0,0,0],"split_type":[0,0,0,0,0,0,0,0,0,0,0,0,0,0,0,0,0,0,0],"sum_hessian":[8.22628E1,1.3666479E1,6.859632E1,1.0348273E1,3.3182054E0,4.5039124E1,2.3557201E1,1.1679144E0,2.150291E0,2.2016563E1,2.302256E1,2.1449162E1,2.1080396E0,6.2426257E0,1.5773937E1,9.03149E0,1.399107E1,1.1753117E0,2.027385E1],"tree_param":{"num_deleted":"0","num_feature":"11","num_nodes":"19","size_leaf_vector":"1"}},{"base_weights":[-9.6957525E-3,1.3574162E0,-3.3041263E-1,1.4422129E0,2.3478025E-3,3.1727967E-1,-8.453981E-1,5.966336E-3,1.54473325E-2,6.1629105E-1,-4.4405112E-1,-1.1279846E0,8.2615E-2,-4.2092097E-3,9.239003E-3,-1.0233434E-2,9.911831E-3,5.63439E-3,-1.2212641E-2,5.526084E-3,-1.1600168E-2],"categories":[],"categories_nodes":[],"categories_segments":[],"categories_sizes":[],"default_left":[0,0,0,0,0,0,0,0,0,0,0,0,0,0,0,0,0,0,0,0,0],"id":25,"left_children":[1,3,5,7,-1,9,11,-1,-1,13,15,17,19,-1,-1,-1,-1,-1,-1,-1,-1],"loss_changes":[3.6945827E1,1.0166607E0,2.316157E1,1.2965393E-1,0E0,7.3414435E0,1.0295471E1,0E0,0E0,7.69796E0,8.68383E0,5.4347343E0,6.3255544E0,0E0,0E0,0E0,0E0,0E0,0E0,0E0,0E0],"parents":[2147483647,0,0,1,1,2,2,3,3,5,5,6,6,9,9,10,10,11,11,12,12],"right_children":[2,4,6,8,-1,10,12,-1,-1,14,16,18,20,-1,-1,-1,-1,-1,-1,-1,-1],"split_conditions":[-7.9013556E-1,5.8159863E1,5.379862E1,4.0664288E1,2.3478025E-3,-1.121518E0,6.195238E1,5.966336E-3,1.54473325E-2,5.0865364E1,1.0060915E0,4.330702E1,7.8198755E-1,-4.2092097E-3,9.239003E-3,-1.0233434E-2,9.911831E-3,5.63439E-3,-1.2212641E-2,5.526084E-3,-1.1600168E-2],"split_indices":[8,5,0,4,0,7,6,0,0,1,8,5,2,0,0,0,0,0,0,0,0],"split_type":[0,0,0,0,0,0,0,0,0,0,0,0,0,0,0,0,0,0,0,0,0],"sum_hessian":[8.247482E1,1.4998185E1,6.747664E1,1.3597382E1,1.4008036E0,2.9971497E1,3.750514E1,2.3132179E0,1.1284163E1,2.1750774E1,8.220723E0,2.8667849E1,8.83729E0,4.816572E0,1.6934202E1,6.110892E0,2.109831E0,1.1788864E0,2.7488962E1,6.8733783E0,1.9639117E0],"tree_param":{"num_deleted":"0","num_feature":"11","num_nodes":"21","size_leaf_vector":"1"}},{"base_weights":[1.3001323E-1,1.3205999E0,-2.1620886E-1,1.4336894E0,3.4428347E-4,-6.2235504E-1,5.963135E-1,6.924063E-1,1.56066865E-2,6.942911E-1,-9.889036E-1,7.8834635E-1,-1.2195486E-2,1.0849476E-2,-0E0,1.0463942E-2,-9.869441E-3,-1.1471931E-2,6.966133E-3,9.90788E-3,-1.0778991E-2],"categories":[],"categories_nodes":[],"categories_segments":[],"categories_sizes":[],"default_left":[0,0,0,0,0,0,0,0,0,0,0,0,0,0,0,0,0,0,0,0,0],"id":26,"left_children":[1,3,5,7,-1,9,11,13,-1,15,17,19,-1,-1,-1,-1,-1,-1,-1,-1,-1],"loss_changes":[3.519012E1,2.5997162E0,2.2215723E1,3.4812546E-1,0E0,2.228912E1,8.759607E0,1.1809814E0,0E0,7.113746E0,1.029903E1,8.9907055E0,0E0,0E0,0E0,0E0,0E0,0E0,0E0,0E0,0E0],"parents":[2147483647,0,0,1,1,2,2,3,3,5,5,6,6,7,7,9,9,10,10,11,11],"right_children":[2,4,6,8,-1,10,12,14,-1,16,18,20,-1,-1,-1,-1,-1,-1,-1,-1,-1],"split_conditions":[-7.9013556E-1,5.8159863E1,1.0175438E-1,4.0664288E1,3.4428347E-4,4.7449574E1,2.9419616E-1,4.3296295E1,1.56066865E-2,2.0974827E0,6.4292595E1,6.0035973E1,-1.2195486E-2,1.0849476E-2,-0E0,1.0463942E-2,-9.869441E-3,-1.1471931E-2,6.966133E-3,9.90788E-3,-1.0778991E-2],"split_indices":[8,5,10,4,0,6,9,6,0,2,4,4,0,0,0,0,0,0,0,0,0],"split_type":[0,0,0,0,0,0,0,0,0,0,0,0,0,0,0,0,0,0,0,0,0],"sum_hessian":[8.340934E1,1.822203E1,6.518731E1,1.6572418E1,1.6496122E0,4.3700405E1,2.14869E1,3.482519E0,1.30899E1,9.262492E0,3.4437916E1,1.9993458E1,1.4934429E0,1.8289759E0,1.653543E0,8.019949E0,1.2425436E0,3.1827642E1,2.6102712E0,1.8508434E1,1.4850239E0],"tree_param":{"num_deleted":"0","num_feature":"11","num_nodes":"21","size_leaf_vector":"1"}},{"base_weights":[2.9745163E-2,-5.241521E-1,9.057359E-1,9.191304E-1,-8.989444E-1,1.1613417E0,-1.3143642E-2,1.5099819E-1,1.1680154E0,7.360517E-3,-1.0134867E0,1.3809521E0,4.8484E-1,1.084761E-2,-1.0483829E-2,3.7628263E-3,1.4846211E-2,-1.198255E-2,2.4176985E-3,1.43849915E-2,2.6447023E-3,-1.1844655E-2,9.692338E-3],"categories":[],"categories_nodes":[],"categories_segments":[],"categories_sizes":[],"default_left":[0,0,0,0,0,0,0,0,0,0,0,0,0,0,0,0,0,0,0,0,0,0,0],"id":27,"left_children":[1,3,5,7,9,11,-1,13,15,-1,17,19,21,-1,-1,-1,-1,-1,-1,-1,-1,-1,-1],"loss_changes":[4.2774258E1,2.999289E1,2.0905136E1,1.9008846E0,8.895428E0,3.78199E0,0E0,5.704274E0,1.3811522E0,0E0,9.895958E0,9.215889E-1,8.649316E0,0E0,0E0,0E0,0E0,0E0,0E0,0E0,0E0,0E0,0E0],"parents":[2147483647,0,0,1,1,2,2,3,3,4,4,5,5,7,7,8,8,10,10,11,11,12,12],"right_children":[2,4,6,8,10,12,-1,14,16,-1,18,20,22,-1,-1,-1,-1,-1,-1,-1,-1,-1,-1],"split_conditions":[1.0175438E-1,-6.329802E-1,5.7276215E1,-2.7021315E0,3.9123188E1,9.7351664E-1,-1.3143642E-2,5.0246387E1,-2.7087955E0,7.360517E-3,1.6520835E0,2.9918587E-1,-7.2500065E-2,1.084761E-2,-1.0483829E-2,3.7628263E-3,1.4846211E-2,-1.198255E-2,2.4176985E-3,1.43849915E-2,2.6447023E-3,-1.1844655E-2,9.692338E-3],"split_indices":[10,8,0,7,6,2,0,0,2,0,3,8,8,0,0,0,0,0,0,0,0,0,0],"split_type":[0,0,0,0,0,0,0,0,0,0,0,0,0,0,0,0,0,0,0,0,0,0,0],"sum_hessian":[8.609931E1,5.2923054E1,3.3176258E1,1.0555569E1,4.2367485E1,3.0219006E1,2.9572518E0,3.0746832E0,7.4808855E0,2.3614018E0,4.000608E1,2.1915514E1,8.303493E0,1.829383E0,1.2453003E0,2.8523595E0,4.628526E0,3.4981964E1,5.0241184E0,2.0481827E1,1.4336878E0,1.4960716E0,6.807421E0],"tree_param":{"num_deleted":"0","num_feature":"11","num_nodes":"23","size_leaf_vector":"1"}},{"base_weights":[9.662419E-2,-6.6275E-1,7.588817E-1,-1.379658E0,-2.0137689E-1,9.544114E-1,-7.8678674E-1,5.7216412E-3,-1.5905043E-2,-1.0793543E0,5.818523E-1,4.5326626E-1,1.2503337E0,6.6050556E-3,-1.3432035E-2,-1.5325001E-2,-1.6500409E-3,9.284533E-3,-4.4404366E-3,6.930358E-3,-1.1698446E-2,1.4267153E-2,3.4953817E-3],"categories":[],"categories_nodes":[],"categories_segments":[],"categories_sizes":[],"default_left":[0,0,0,0,0,0,0,0,0,0,0,0,0,0,0,0,0,0,0,0,0,0,0],"id":28,"left_children":[1,3,5,7,9,11,13,-1,-1,15,17,19,21,-1,-1,-1,-1,-1,-1,-1,-1,-1,-1],"loss_changes":[4.2918232E1,1.2709986E1,1.4542372E1,7.311098E0,1.8170158E1,5.338581E0,5.472301E0,0E0,0E0,4.716716E0,5.4508004E0,7.3417826E0,3.3060188E0,0E0,0E0,0E0,0E0,0E0,0E0,0E0,0E0,0E0,0E0],"parents":[2147483647,0,0,1,1,2,2,3,3,4,4,5,5,6,6,9,9,10,10,11,11,12,12],"right_children":[2,4,6,8,10,12,14,-1,-1,16,18,20,22,-1,-1,-1,-1,-1,-1,-1,-1,-1,-1],"split_conditions":[3.3333335E-2,2.081213E-1,5.7276215E1,-8.94852E-1,5.7340965E1,1.0013894E0,4.247991E-2,5.7216412E-3,-1.5905043E-2,-4.6457606E-3,6.023016E1,9.048853E-1,-1.0913795E0,6.6050556E-3,-1.3432035E-2,-1.5325001E-2,-1.6500409E-3,9.284533E-3,-4.4404366E-3,6.930358E-3,-1.1698446E-2,1.4267153E-2,3.4953817E-3],"split_indices":[10,9,0,8,4,3,10,0,0,10,4,3,7,0,0,0,0,0,0,0,0,0,0],"split_type":[0,0,0,0,0,0,0,0,0,0,0,0,0,0,0,0,0,0,0,0,0,0,0],"sum_hessian":[8.332207E1,3.8744335E1,4.4577736E1,1.4306696E1,2.4437637E1,3.9968834E1,4.608904E0,1.1815023E0,1.3125194E1,1.1403848E1,1.303379E1,1.5904373E1,2.406446E1,1.1780066E0,3.4308972E0,7.0998087E0,4.304039E0,9.886183E0,3.1476066E0,1.4410284E1,1.4940891E0,1.9542967E1,4.5214934E0],"tree_param":{"num_deleted":"0","num_feature":"11","num_nodes":"23","size_leaf_vector":"1"}},{"base_weights":[-3.1410668E-2,-6.6024023E-1,8.8988E-1,2.8468084E-2,-1.4900668E0,1.0473512E0,-1.7370868E-1,1.1453118E0,-4.0383124E-1,-6.524341E-1,-1.6275685E-2,1.3662728E-2,5.1263237E-1,-1.0731294E-2,4.2860845E-1,1.3954678E-2,4.3718057E-4,6.5295133E-3,-7.836335E-3,-1.25528965E-2,6.882332E-3,-1.2062865E-2,8.861549E-3,5.8456063E-3,1.01603E-3],"categories":[],"categories_nodes":[],"categories_segments":[],"categories_sizes":[],"default_left":[0,0,0,0,0,0,0,0,0,0,0,0,0,0,0,0,0,0,0,0,0,0,0,0,0],"id":29,"left_children":[1,3,5,7,9,11,13,15,17,19,-1,-1,21,-1,23,-1,-1,-1,-1,-1,-1,-1,-1,-1,-1],"loss_changes":[5.0376003E1,2.9758276E1,6.171568E0,1.4629605E1,1.422554E0,4.3846207E0,3.4067545E0,2.1293564E0,9.241919E0,5.036471E0,0E0,0E0,9.556672E0,0E0,6.754446E-2,0E0,0E0,0E0,0E0,0E0,0E0,0E0,0E0,0E0,0E0],"parents":[2147483647,0,0,1,1,2,2,3,3,4,4,5,5,6,6,7,7,8,8,9,9,12,12,14,14],"right_children":[2,4,6,8,10,12,14,16,18,20,-1,-1,22,-1,24,-1,-1,-1,-1,-1,-1,-1,-1,-1,-1],"split_conditions":[1.0175438E-1,5.461041E1,5.7563732E1,4.7449574E1,5.782986E-1,5.7819443E1,5.856676E1,5.472782E1,-1.939879E0,4.3062735E-1,-1.6275685E-2,1.3662728E-2,1.362963E-1,-1.0731294E-2,-4.734772E-1,1.3954678E-2,4.3718057E-4,6.5295133E-3,-7.836335E-3,-1.25528965E-2,6.882332E-3,-1.2062865E-2,8.861549E-3,5.8456063E-3,1.01603E-3],"split_indices":[10,1,1,6,3,6,1,5,7,8,0,0,10,0,7,0,0,0,0,0,0,0,0,0,0],"split_type":[0,0,0,0,0,0,0,0,0,0,0,0,0,0,0,0,0,0,0,0,0,0,0,0,0],"sum_hessian":[8.49804E1,5.073974E1,3.4240658E1,2.8189371E1,2.255037E1,2.9920082E1,4.3205757E0,7.470732E0,2.0718637E1,4.0924106E0,1.8457958E1,1.7650614E1,1.2269468E1,1.4859747E0,2.8346012E0,5.7968116E0,1.6739206E0,5.2178173E0,1.550082E1,2.9183803E0,1.1740305E0,1.7444499E0,1.0525019E1,1.1789333E0,1.6556678E0],"tree_param":{"num_deleted":"0","num_feature":"11","num_nodes":"25","size_leaf_vector":"1"}},{"base_weights":[9.116376E-2,-5.3462493E-1,1.0350951E0,8.49215E-1,-8.68399E-1,1.2256489E0,-1.1843888E-2,1.2685809E0,-0E0,-9.9460125E-1,1.1952962E-2,1.2599974E0,2.3893653E-3,1.4285455E-2,3.3986445E-3,-9.578357E-3,6.675469E-3,-1.123025E-2,4.046311E-3,9.27969E-3,1.503796E-2],"categories":[],"categories_nodes":[],"categories_segments":[],"categories_sizes":[],"default_left":[0,0,0,0,0,0,0,0,0,0,0,0,0,0,0,0,0,0,0,0,0],"id":30,"left_children":[1,3,5,7,9,11,-1,13,15,17,-1,19,-1,-1,-1,-1,-1,-1,-1,-1,-1],"loss_changes":[5.1376568E1,2.4888378E1,1.6119179E1,3.6559768E0,1.2283386E1,6.492691E-1,0E0,3.8131618E-1,3.54136E0,7.8592186E0,0E0,8.738632E-1,0E0,0E0,0E0,0E0,0E0,0E0,0E0,0E0,0E0],"parents":[2147483647,0,0,1,1,2,2,3,3,4,4,5,5,7,7,8,8,9,9,11,11],"right_children":[2,4,6,8,10,12,-1,14,16,18,-1,20,-1,-1,-1,-1,-1,-1,-1,-1,-1],"split_conditions":[1.0175438E-1,4.6809338E1,5.7276215E1,5.3751057E1,6.6275E1,6.025769E1,-1.1843888E-2,-4.2976923E-2,-1.3452381E-1,6.504186E1,1.1952962E-2,1.7142858E-1,2.3893653E-3,1.4285455E-2,3.3986445E-3,-9.578357E-3,6.675469E-3,-1.123025E-2,4.046311E-3,9.27969E-3,1.503796E-2],"split_indices":[10,6,0,5,6,4,0,2,10,4,0,10,0,0,0,0,0,0,0,0,0],"split_type":[0,0,0,0,0,0,0,0,0,0,0,0,0,0,0,0,0,0,0,0,0],"sum_hessian":[8.495395E1,5.128303E1,3.367092E1,9.607226E0,4.1675804E1,3.1462538E1,2.208383E0,6.0251455E0,3.5820808E0,3.9807915E1,1.8678889E0,3.003855E1,1.4239875E0,4.588876E0,1.4362695E0,1.2335974E0,2.3484836E0,3.670769E1,3.100225E0,1.4926578E1,1.5111973E1],"tree_param":{"num_deleted":"0","num_feature":"11","num_nodes":"21","size_leaf_vector":"1"}},{"base_weights":[-0E0,-7.612948E-1,6.9442236E-1,4.739338E-1,-1.1044493E0,1.1481955E0,-4.263143E-2,9.810422E-1,-1.111309E-2,2.703052E-1,-1.2751355E0,1.5582729E-2,5.50593E-1,-9.993635E-1,4.1149276E-1,1.2164709E-2,3.5948577E-4,-7.883813E-4,6.988115E-3,-1.6298914E-2,-4.8865876E-3,-2.3684925E-3,1.2699518E-2,-1.486608E-2,5.2105086E-3,-1.1401088E-2,8.477537E-3],"categories":[],"categories_nodes":[],"categories_segments":[],"categories_sizes":[],"default_left":[0,0,0,0,0,0,0,0,0,0,0,0,0,0,0,0,0,0,0,0,0,0,0,0,0,0,0],"id":31,"left_children":[1,3,5,7,9,11,13,15,-1,17,19,-1,21,23,25,-1,-1,-1,-1,-1,-1,-1,-1,-1,-1,-1,-1],"loss_changes":[4.5226757E1,1.790404E1,1.5104704E1,8.729205E0,8.03302E0,5.7383575E0,8.250531E0,1.5644627E0,0E0,7.651742E-1,7.084255E0,0E0,7.739497E0,5.4098883E0,9.5889E0,0E0,0E0,0E0,0E0,0E0,0E0,0E0,0E0,0E0,0E0,0E0,0E0],"parents":[2147483647,0,0,1,1,2,2,3,3,4,4,5,5,6,6,7,7,9,9,10,10,12,12,13,13,14,14],"right_children":[2,4,6,8,10,12,14,16,-1,18,20,-1,22,24,26,-1,-1,-1,-1,-1,-1,-1,-1,-1,-1,-1,-1],"split_conditions":[3.3333335E-2,4.6809338E1,5.4794003E1,2.2145024E-1,4.6616104E1,5.6363197E1,5.7583332E1,1.2012044E0,-1.111309E-2,4.330702E1,-1.2021083E-1,1.5582729E-2,6.164209E1,6.3493828E1,7.539683E-2,1.2164709E-2,3.5948577E-4,-7.883813E-4,6.988115E-3,-1.6298914E-2,-4.8865876E-3,-2.3684925E-3,1.2699518E-2,-1.486608E-2,5.2105086E-3,-1.1401088E-2,8.477537E-3],"split_indices":[10,6,1,8,4,6,5,2,0,4,7,0,6,6,10,0,0,0,0,0,0,0,0,0,0,0,0],"split_type":[0,0,0,0,0,0,0,0,0,0,0,0,0,0,0,0,0,0,0,0,0,0,0,0,0,0,0],"sum_hessian":[8.35406E1,3.9855396E1,4.3685207E1,8.518704E0,3.133669E1,2.6777365E1,1.6907843E1,6.7906456E0,1.7280588E0,3.3318167E0,2.8004873E1,1.4827671E1,1.1949693E1,5.1266885E0,1.1781154E1,5.121816E0,1.6688292E0,2.1569777E0,1.1748391E0,1.8472805E1,9.532069E0,5.958733E0,5.990959E0,3.9491258E0,1.177563E0,2.1811416E0,9.600012E0],"tree_param":{"num_deleted":"0","num_feature":"11","num_nodes":"27","size_leaf_vector":"1"}},{"base_weights":[-0E0,-4.3898892E-1,8.738364E-1,1.0138248E0,-8.274288E-1,1.0730462E0,-1.1331892E-2,1.334145E-2,1.0453234E-1,-2.4397005E-1,-1.1533741E0,1.1716362E0,-6.717104E-4,-9.731126E-3,8.809012E-3,-6.2000393E-3,9.341919E-3,-1.3663591E-2,4.0780674E-3,1.2619863E-2,-4.144747E-5],"categories":[],"categories_nodes":[],"categories_segments":[],"categories_sizes":[],"default_left":[0,0,0,0,0,0,0,0,0,0,0,0,0,0,0,0,0,0,0,0,0],"id":32,"left_children":[1,3,5,7,9,11,-1,-1,13,15,17,19,-1,-1,-1,-1,-1,-1,-1,-1,-1],"loss_changes":[3.2041782E1,3.22473E1,1.2367891E1,3.2536497E0,8.050358E0,3.1059055E0,0E0,0E0,4.4705105E0,8.23172E0,1.00302925E1,2.6823425E0,0E0,0E0,0E0,0E0,0E0,0E0,0E0,0E0,0E0],"parents":[2147483647,0,0,1,1,2,2,3,3,4,4,5,5,8,8,9,9,10,10,11,11],"right_children":[2,4,6,8,10,12,-1,-1,14,16,18,20,-1,-1,-1,-1,-1,-1,-1,-1,-1],"split_conditions":[1.0625E-1,4.5726532E1,5.7276215E1,1.2012044E0,5.379862E1,6.2527397E1,-1.1331892E-2,1.334145E-2,4.283871E1,5.3440548E1,6.4292595E1,3.1876495E-1,-6.717104E-4,-9.731126E-3,8.809012E-3,-6.2000393E-3,9.341919E-3,-1.3663591E-2,4.0780674E-3,1.2619863E-2,-4.144747E-5],"split_indices":[10,6,0,2,0,5,0,0,6,0,4,9,0,0,0,0,0,0,0,0,0],"split_type":[0,0,0,0,0,0,0,0,0,0,0,0,0,0,0,0,0,0,0,0,0],"sum_hessian":[8.159657E1,5.46891E1,2.690747E1,1.11435175E1,4.354558E1,2.494655E1,1.9609206E0,7.8137317E0,3.3297858E0,1.63441E1,2.720148E1,2.3016548E1,1.9300016E0,1.2342942E0,2.0954916E0,1.2813158E1,3.5309434E0,2.410217E1,3.0993087E0,2.1384998E1,1.6315492E0],"tree_param":{"num_deleted":"0","num_feature":"11","num_nodes":"21","size_leaf_vector":"1"}},{"base_weights":[1.3127898E-1,-3.9602625E-1,8.5816836E-1,6.9084233E-1,-6.970629E-1,1.043699E0,-1.2006068E-2,1.1434109E0,-1.12360185E-2,-8.235998E-1,1.1954953E-2,1.4684983E0,6.274437E-1,4.742944E-3,1.30783655E-2,-1.122176E-2,5.116562E-4,1.5618871E-2,6.1455034E-3,-1.2100478E-2,8.57977E-3],"categories":[],"categories_nodes":[],"categories_segments":[],"categories_sizes":[],"default_left":[0,0,0,0,0,0,0,0,0,0,0,0,0,0,0,0,0,0,0,0,0],"id":33,"left_children":[1,3,5,7,9,11,-1,13,-1,15,-1,17,19,-1,-1,-1,-1,-1,-1,-1,-1],"loss_changes":[3.331221E1,1.696956E1,1.5183779E1,1.0615147E1,1.0534033E1,4.89402E0,0E0,2.6119614E-1,0E0,1.0132368E1,0E0,9.837341E-2,9.083062E0,0E0,0E0,0E0,0E0,0E0,0E0,0E0,0E0],"parents":[2147483647,0,0,1,1,2,2,3,3,4,4,5,5,7,7,9,9,11,11,12,12],"right_children":[2,4,6,8,10,12,-1,14,-1,16,-1,18,20,-1,-1,-1,-1,-1,-1,-1,-1],"split_conditions":[6.1373875E-2,4.7449574E1,5.7276215E1,1.2012044E0,6.6275E1,5.661905E1,-1.2006068E-2,5.191385E1,-1.12360185E-2,2.7646843E-1,1.1954953E-2,5.3647293E1,4.7646465E1,4.742944E-3,1.30783655E-2,-1.122176E-2,5.116562E-4,1.5618871E-2,6.1455034E-3,-1.2100478E-2,8.57977E-3],"split_indices":[10,6,0,2,6,6,0,0,0,9,0,0,4,0,0,0,0,0,0,0,0],"split_type":[0,0,0,0,0,0,0,0,0,0,0,0,0,0,0,0,0,0,0,0,0],"sum_hessian":[8.4903404E1,4.9391254E1,3.551215E1,1.0360054E1,3.90312E1,3.3073303E1,2.4388454E0,8.631964E0,1.72809E0,3.7164062E1,1.8671381E0,1.4998663E1,1.807464E1,2.5889945E0,6.042969E0,2.7581419E1,9.582645E0,1.2667237E1,2.3314264E0,1.4928705E0,1.658177E1],"tree_param":{"num_deleted":"0","num_feature":"11","num_nodes":"21","size_leaf_vector":"1"}},{"base_weights":[-1.0363097E-1,-6.629196E-1,8.074487E-1,3.9925742E-1,-9.513277E-1,1.0750784E0,-1.274204E-2,-7.122992E-1,1.1399907E0,-1.597414E-2,-6.7092335E-1,1.172658E0,-1.3382137E-3,-1.2826818E-2,6.003926E-3,1.304971E-2,2.300223E-3,-9.2260605E-3,7.308685E-3,1.1134482E-3,1.2234012E-2],"categories":[],"categories_nodes":[],"categories_segments":[],"categories_sizes":[],"default_left":[0,0,0,0,0,0,0,0,0,0,0,0,0,0,0,0,0,0,0,0,0],"id":34,"left_children":[1,3,5,7,9,11,-1,13,15,-1,17,19,-1,-1,-1,-1,-1,-1,-1,-1,-1],"loss_changes":[4.1364452E1,1.58389015E1,1.854898E1,1.0214847E1,5.932728E0,3.5567055E0,0E0,4.662554E0,6.36322E-1,0E0,1.1160218E1,1.1322365E0,0E0,0E0,0E0,0E0,0E0,0E0,0E0,0E0,0E0],"parents":[2147483647,0,0,1,1,2,2,3,3,4,4,5,5,7,7,8,8,10,10,11,11],"right_children":[2,4,6,8,10,12,-1,14,16,-1,18,20,-1,-1,-1,-1,-1,-1,-1,-1,-1],"split_conditions":[1.0175438E-1,-1.939879E0,5.7276215E1,9.6276957E-1,-1.2202849E0,6.1465385E1,-1.274204E-2,5.6814228E1,5.230216E1,-1.597414E-2,2.7230442E-1,4.751337E1,-1.3382137E-3,-1.2826818E-2,6.003926E-3,1.304971E-2,2.300223E-3,-9.2260605E-3,7.308685E-3,1.1134482E-3,1.2234012E-2],"split_indices":[10,7,0,3,7,5,0,0,5,0,9,5,0,0,0,0,0,0,0,0,0],"split_type":[0,0,0,0,0,0,0,0,0,0,0,0,0,0,0,0,0,0,0,0,0],"sum_hessian":[7.915526E1,4.928351E1,2.9871752E1,1.0368032E1,3.8915474E1,2.6939796E1,2.9319568E0,4.107554E0,6.260479E0,1.024841E1,2.8667063E1,2.5031971E1,1.9078245E0,2.9324188E0,1.1751351E0,4.8391476E0,1.4213314E0,2.4653807E1,4.0132565E0,1.3778883E0,2.3654083E1],"tree_param":{"num_deleted":"0","num_feature":"11","num_nodes":"21","size_leaf_vector":"1"}},{"base_weights":[4.6524353E-2,-5.3620857E-1,1.0044491E0,7.973636E-1,-8.092766E-1,1.1569141E0,-1.0457938E-2,1.2294921E0,-2.9420474E-1,-1.1950065E0,1.8664512E-1,1.2191284E0,1.4733752E-4,1.753967E-3,1.4439134E-2,-9.7467275E-3,4.9607763E-3,-1.38460705E-2,1.1890996E-2,1.3399639E-2,-1.1381358E-3,1.2672095E-2,1.1101842E-3],"categories":[],"categories_nodes":[],"categories_segments":[],"categories_sizes":[],"default_left":[0,0,0,0,0,0,0,0,0,0,0,0,0,0,0,0,0,0,0,0,0,0,0],"id":35,"left_children":[1,3,5,7,9,11,-1,13,15,17,19,21,-1,-1,-1,-1,-1,-1,-1,-1,-1,-1,-1],"loss_changes":[4.7359665E1,1.9832485E1,1.1257141E1,4.887387E0,1.7338232E1,2.0191765E0,0E0,1.1647072E0,2.3630311E0,1.6190845E1,4.8345065E0,1.252655E0,0E0,0E0,0E0,0E0,0E0,0E0,0E0,0E0,0E0,0E0,0E0],"parents":[2147483647,0,0,1,1,2,2,3,3,4,4,5,5,7,7,8,8,9,9,10,10,11,11],"right_children":[2,4,6,8,10,12,-1,14,16,18,20,22,-1,-1,-1,-1,-1,-1,-1,-1,-1,-1,-1],"split_conditions":[1.0175438E-1,4.5685936E1,5.7276215E1,1.2012044E0,2.7646843E-1,6.025769E1,-1.0457938E-2,5.283832E1,1.0288901E0,6.4375E1,2.769552E-1,3.3407986E-1,1.4733752E-4,1.753967E-3,1.4439134E-2,-9.7467275E-3,4.9607763E-3,-1.38460705E-2,1.1890996E-2,1.3399639E-2,-1.1381358E-3,1.2672095E-2,1.1101842E-3],"split_indices":[10,6,0,2,9,4,0,4,3,6,9,9,0,0,0,0,0,0,0,0,0,0,0],"split_type":[0,0,0,0,0,0,0,0,0,0,0,0,0,0,0,0,0,0,0,0,0,0,0],"sum_hessian":[8.2792625E1,5.1686253E1,3.1106375E1,8.396133E0,4.329012E1,2.9404242E1,1.7021338E0,5.990056E0,2.4060774E0,3.1132656E1,1.2157464E1,2.7738415E1,1.665827E0,1.3986524E0,4.591404E0,1.2354851E0,1.1705923E0,2.926637E1,1.8662851E0,1.8663867E0,1.0291078E1,2.6360792E1,1.3776214E0],"tree_param":{"num_deleted":"0","num_feature":"11","num_nodes":"23","size_leaf_vector":"1"}},{"base_weights":[-3.4368966E-2,5.2607083E-1,-5.3917176E-1,8.681748E-1,-3.9842868E-1,-6.84631E-1,1.0655599E-2,1.2685378E0,5.184591E-1,-1.0338739E0,5.942964E-1,-1.3420212E0,-3.690003E-1,1.3698969E-2,2.1909364E-3,-5.6033693E-3,1.0428234E-2,-1.4895641E-2,6.7804568E-3,1.24853095E-2,-1.5730937E-3,1.3108525E-3,-1.584241E-2,1.3659458E-3,-1.2207649E-2],"categories":[],"categories_nodes":[],"categories_segments":[],"categories_sizes":[],"default_left":[0,0,0,0,0,0,0,0,0,0,0,0,0,0,0,0,0,0,0,0,0,0,0,0,0],"id":36,"left_children":[1,3,5,7,9,11,-1,13,15,17,19,21,23,-1,-1,-1,-1,-1,-1,-1,-1,-1,-1,-1,-1],"loss_changes":[2.3623459E1,1.2887312E1,1.0959476E1,3.2559738E0,7.7719183E0,7.840685E0,0E0,9.028168E-1,1.0489874E1,6.7874527E0,2.7516828E0,4.92642E0,1.2842198E1,0E0,0E0,0E0,0E0,0E0,0E0,0E0,0E0,0E0,0E0,0E0,0E0],"parents":[2147483647,0,0,1,1,2,2,3,3,4,4,5,5,7,7,8,8,9,9,10,10,11,11,12,12],"right_children":[2,4,6,8,10,12,-1,14,16,18,20,22,24,-1,-1,-1,-1,-1,-1,-1,-1,-1,-1,-1,-1],"split_conditions":[5.386004E1,-1.1813457E0,6.6275E1,-6.1812854E-1,5.7638554E1,5.5182503E1,1.0655599E-2,-2.255376E0,-2.6041692E-1,5.813E1,5.802835E1,4.5685936E1,5.8059525E1,1.3698969E-2,2.1909364E-3,-5.6033693E-3,1.0428234E-2,-1.4895641E-2,6.7804568E-3,1.24853095E-2,-1.5730937E-3,1.3108525E-3,-1.584241E-2,1.3659458E-3,-1.2207649E-2],"split_indices":[0,7,6,8,5,0,0,7,2,4,5,6,1,0,0,0,0,0,0,0,0,0,0,0,0],"split_type":[0,0,0,0,0,0,0,0,0,0,0,0,0,0,0,0,0,0,0,0,0,0,0,0,0],"sum_hessian":[8.1494E1,3.850497E1,4.2989037E1,2.8228369E1,1.0276602E1,3.9999046E1,2.9899893E0,1.1802873E1,1.6425495E1,6.3019767E0,3.9746246E0,1.1817358E1,2.818169E1,1.0397956E1,1.4049166E0,5.2876625E0,1.1137833E1,5.1258454E0,1.1761312E0,1.8426173E0,2.1320076E0,1.6752112E0,1.0142147E1,1.8137669E1,1.0044022E1],"tree_param":{"num_deleted":"0","num_feature":"11","num_nodes":"25","size_leaf_vector":"1"}},{"base_weights":[7.10545E-2,-4.157415E-1,9.204593E-1,8.315643E-1,-8.091805E-1,1.1004777E0,-1.0988058E-2,1.162678E0,-1.0247322E-2,9.1826284E-1,-9.868945E-1,1.4467741E-2,7.588824E-1,1.3589668E-2,3.8420167E-3,1.9795431E-3,1.1701105E-2,3.437843E-3,-1.1932049E-2,-1.13300895E-2,9.926016E-3],"categories":[],"categories_nodes":[],"categories_segments":[],"categories_sizes":[],"default_left":[0,0,0,0,0,0,0,0,0,0,0,0,0,0,0,0,0,0,0,0,0],"id":37,"left_children":[1,3,5,7,9,11,-1,13,-1,15,17,-1,19,-1,-1,-1,-1,-1,-1,-1,-1],"loss_changes":[3.4496857E1,2.6671412E1,1.225946E1,9.279917E0,1.3452364E1,2.0476036E0,0E0,1.0857077E0,0E0,4.0719962E-1,1.0809383E1,0E0,8.438952E0,0E0,0E0,0E0,0E0,0E0,0E0,0E0,0E0],"parents":[2147483647,0,0,1,1,2,2,3,3,4,4,5,5,7,7,9,9,10,10,12,12],"right_children":[2,4,6,8,10,12,-1,14,-1,16,18,-1,20,-1,-1,-1,-1,-1,-1,-1,-1],"split_conditions":[1.0175438E-1,4.7449574E1,5.7276215E1,2.2145024E-1,-1.026617E0,5.661905E1,-1.0988058E-2,5.472782E1,-1.0247322E-2,4.9453533E1,5.2471245E1,1.4467741E-2,4.7646465E1,1.3589668E-2,3.8420167E-3,1.9795431E-3,1.1701105E-2,3.437843E-3,-1.1932049E-2,-1.13300895E-2,9.926016E-3],"split_indices":[10,6,0,8,8,6,0,5,0,4,0,0,4,0,0,0,0,0,0,0,0],"split_type":[0,0,0,0,0,0,0,0,0,0,0,0,0,0,0,0,0,0,0,0,0],"sum_hessian":[8.1381615E1,5.1982906E1,2.9398714E1,1.21371565E1,3.984575E1,2.745557E1,1.9431437E0,1.0662738E1,1.4744192E0,3.275634E0,3.6570114E1,1.188198E1,1.557359E1,7.817471E0,2.8452666E0,1.414138E0,1.8614961E0,4.7543097E0,3.1815805E1,1.2422585E0,1.4331331E1],"tree_param":{"num_deleted":"0","num_feature":"11","num_nodes":"21","size_leaf_vector":"1"}},{"base_weights":[7.045985E-2,-3.656362E-1,8.225048E-1,6.5932706E-2,-1.3540281E0,9.9099374E-1,-1.10551715E-2,5.049094E-1,-5.337783E-1,-1.5550215E-2,2.3853804E-3,1.1768566E0,3.3830875E-1,1.2563823E-2,9.775176E-4,-9.781495E-3,4.7257533E-3,1.38188E-3,1.23463115E-2,-1.1532174E-2,8.705562E-3],"categories":[],"categories_nodes":[],"categories_segments":[],"categories_sizes":[],"default_left":[0,0,0,0,0,0,0,0,0,0,0,0,0,0,0,0,0,0,0,0,0],"id":38,"left_children":[1,3,5,7,9,11,-1,13,15,-1,-1,17,19,-1,-1,-1,-1,-1,-1,-1,-1],"loss_changes":[2.8032223E1,2.3269672E1,1.1276764E1,1.0401916E1,5.797434E0,3.0204754E0,0E0,6.7296686E0,7.9633555E0,0E0,0E0,1.0353432E0,7.3629107E0,0E0,0E0,0E0,0E0,0E0,0E0,0E0,0E0],"parents":[2147483647,0,0,1,1,2,2,3,3,4,4,5,5,7,7,8,8,11,11,12,12],"right_children":[2,4,6,8,10,12,-1,14,16,-1,-1,18,20,-1,-1,-1,-1,-1,-1,-1,-1],"split_conditions":[1.0175438E-1,5.8159863E1,5.7276215E1,5.383656E1,6.439189E1,9.7351664E-1,-1.10551715E-2,-6.329802E-1,5.6192028E1,-1.5550215E-2,2.3853804E-3,5.108911E1,2.08648E0,1.2563823E-2,9.775176E-4,-9.781495E-3,4.7257533E-3,1.38188E-3,1.23463115E-2,-1.1532174E-2,8.705562E-3],"split_indices":[10,5,0,0,4,2,0,8,0,0,0,0,2,0,0,0,0,0,0,0,0],"split_type":[0,0,0,0,0,0,0,0,0,0,0,0,0,0,0,0,0,0,0,0,0],"sum_hessian":[8.341724E1,5.3040775E1,3.037646E1,3.74993E1,1.5541478E1,2.842986E1,1.9466002E0,2.1838655E1,1.5660642E1,1.3876527E1,1.6649517E0,2.1384073E1,7.0457854E0,6.8551197E0,1.4983537E1,1.0952006E1,4.708635E0,1.3967134E0,1.998736E1,1.496774E0,5.549011E0],"tree_param":{"num_deleted":"0","num_feature":"11","num_nodes":"21","size_leaf_vector":"1"}},{"base_weights":[5.4105747E-2,-5.260739E-1,8.2129115E-1,6.857252E-1,-9.1218626E-1,1.0654038E0,-4.1216773E-1,1.2039785E0,-1.1467512E-2,6.911003E-3,-9.9254405E-1,1.4067456E-2,6.403447E-1,-1.1822837E-2,3.592285E-1,1.3121611E-2,3.1552715E-3,-8.622892E-4,-1.1942656E-2,1.0983645E-3,1.2003137E-2,2.2618656E-4,5.57966E-3],"categories":[],"categories_nodes":[],"categories_segments":[],"categories_sizes":[],"default_left":[0,0,0,0,0,0,0,0,0,0,0,0,0,0,0,0,0,0,0,0,0,0,0],"id":39,"left_children":[1,3,5,7,9,11,13,15,-1,-1,17,-1,19,-1,21,-1,-1,-1,-1,-1,-1,-1,-1],"loss_changes":[3.4939198E1,2.1535028E1,1.0687435E1,1.2113117E1,5.1410465E0,3.040928E0,4.2143774E0,3.2046413E-1,0E0,0E0,5.834339E0,0E0,4.1023498E0,0E0,1.8485668E-1,0E0,0E0,0E0,0E0,0E0,0E0,0E0,0E0],"parents":[2147483647,0,0,1,1,2,2,3,3,4,4,5,5,6,6,7,7,10,10,12,12,14,14],"right_children":[2,4,6,8,10,12,14,16,-1,-1,18,-1,20,-1,22,-1,-1,-1,-1,-1,-1,-1,-1],"split_conditions":[7.539683E-2,4.7449574E1,5.7563732E1,1.2012044E0,-3.2976606E-1,5.6598103E1,1.0341805E0,5.472782E1,-1.1467512E-2,6.911003E-3,-1.939879E0,1.4067456E-2,1.1652079E0,-1.1822837E-2,5.8779762E1,1.3121611E-2,3.1552715E-3,-8.622892E-4,-1.1942656E-2,1.0983645E-3,1.2003137E-2,2.2618656E-4,5.57966E-3],"split_indices":[10,6,1,2,10,6,3,5,0,0,7,0,3,0,1,0,0,0,0,0,0,0,0],"split_type":[0,0,0,0,0,0,0,0,0,0,0,0,0,0,0,0,0,0,0,0,0,0,0],"sum_hessian":[7.645946E1,4.3640507E1,3.281895E1,1.0295017E1,3.334549E1,2.7578281E1,5.2406707E0,8.335231E0,1.9597868E0,1.169384E0,3.2176105E1,1.3884002E1,1.369428E1,2.4208345E0,2.8198361E0,6.9049797E0,1.4302511E0,6.2078857E0,2.5968218E1,7.7380595E0,5.95622E0,1.6470866E0,1.1727495E0],"tree_param":{"num_deleted":"0","num_feature":"11","num_nodes":"23","size_leaf_vector":"1"}},{"base_weights":[-1.8114621E-3,-5.8424294E-1,8.094855E-1,4.4633025E-1,-8.7526107E-1,1.0434555E0,-1.2413033E-2,1.0433446E0,-6.0017526E-1,-1.4266094E0,-2.7852356E-1,1.1820419E0,-2.2035232E-3,1.3275231E-2,-0E0,-1.2064092E-2,5.879653E-3,5.0895438E-3,-1.5857598E-2,-1.0412848E-2,3.1917566E-3,1.2258538E-2,1.7297558E-3,-1.1419124E-2,8.798275E-3],"categories":[],"categories_nodes":[],"categories_segments":[],"categories_sizes":[],"default_left":[0,0,0,0,0,0,0,0,0,0,0,0,0,0,0,0,0,0,0,0,0,0,0,0,0],"id":40,"left_children":[1,3,5,7,9,11,-1,13,15,17,19,21,23,-1,-1,-1,-1,-1,-1,-1,-1,-1,-1,-1,-1],"loss_changes":[3.8609333E1,1.472773E1,1.763487E1,7.594075E0,1.1796043E1,4.640499E0,0E0,2.1369286E0,4.084092E0,6.830055E0,9.238297E0,8.694191E-1,5.6186347E0,0E0,0E0,0E0,0E0,0E0,0E0,0E0,0E0,0E0,0E0,0E0,0E0],"parents":[2147483647,0,0,1,1,2,2,3,3,4,4,5,5,7,7,8,8,9,9,10,10,11,11,12,12],"right_children":[2,4,6,8,10,12,-1,14,16,18,20,22,24,-1,-1,-1,-1,-1,-1,-1,-1,-1,-1,-1,-1],"split_conditions":[7.539683E-2,-1.939879E0,5.7276215E1,5.379862E1,5.553846E1,6.0035973E1,-1.2413033E-2,3.075729E-1,5.6676094E1,3.5814285E1,3.953392E-1,2.5106757E0,6.4292595E1,1.3275231E-2,-0E0,-1.2064092E-2,5.879653E-3,5.0895438E-3,-1.5857598E-2,-1.0412848E-2,3.1917566E-3,1.2258538E-2,1.7297558E-3,-1.1419124E-2,8.798275E-3],"split_indices":[10,7,0,0,6,5,0,9,0,6,8,2,5,0,0,0,0,0,0,0,0,0,0,0,0],"split_type":[0,0,0,0,0,0,0,0,0,0,0,0,0,0,0,0,0,0,0,0,0,0,0,0,0],"sum_hessian":[7.975537E1,4.6660698E1,3.309467E1,1.0081634E1,3.6579067E1,3.019028E1,2.9043891E0,6.482213E0,3.5994203E0,1.8202671E1,1.8376394E1,2.6626541E1,3.563741E0,4.8342633E0,1.6479495E0,2.4288957E0,1.1705245E0,1.1682539E0,1.7034418E1,7.82086E0,1.0555534E1,2.521769E1,1.4088515E0,1.4756838E0,2.088057E0],"tree_param":{"num_deleted":"0","num_feature":"11","num_nodes":"25","size_leaf_vector":"1"}},{"base_weights":[-1.2918737E-2,-5.5266815E-1,6.491729E-1,6.0928047E-1,-9.194946E-1,8.82605E-1,-1.2768905E-2,1.1003879E0,-1.1453211E-2,-1.0745107E0,1.1704349E-2,9.8688567E-1,-9.888998E-3,1.185395E-2,3.230023E-3,-1.4353201E-2,-3.5344874E-3,1.2543904E-2,4.7403537E-3],"categories":[],"categories_nodes":[],"categories_segments":[],"categories_sizes":[],"default_left":[0,0,0,0,0,0,0,0,0,0,0,0,0,0,0,0,0,0,0],"id":41,"left_children":[1,3,5,7,9,11,-1,13,-1,15,-1,17,-1,-1,-1,-1,-1,-1,-1],"loss_changes":[2.9565277E1,2.005386E1,1.7764694E1,1.1158878E1,1.2641958E1,7.556755E0,0E0,9.629822E-2,0E0,7.979088E0,0E0,3.6901321E0,0E0,0E0,0E0,0E0,0E0,0E0,0E0],"parents":[2147483647,0,0,1,1,2,2,3,3,4,4,5,5,7,7,9,9,11,11],"right_children":[2,4,6,8,10,12,-1,14,-1,16,-1,18,-1,-1,-1,-1,-1,-1,-1],"split_conditions":[7.419018E-2,4.7449574E1,5.7276215E1,1.2012044E0,6.6275E1,6.0035973E1,-1.2768905E-2,5.472782E1,-1.1453211E-2,5.41976E-1,1.1704349E-2,5.901984E1,-9.888998E-3,1.185395E-2,3.230023E-3,-1.4353201E-2,-3.5344874E-3,1.2543904E-2,4.7403537E-3],"split_indices":[10,6,0,2,6,4,0,5,0,8,0,6,0,0,0,0,0,0,0],"split_type":[0,0,0,0,0,0,0,0,0,0,0,0,0,0,0,0,0,0,0],"sum_hessian":[8.07547E1,4.4661842E1,3.6092857E1,1.0492514E1,3.416933E1,3.272088E1,3.3719785E0,8.533784E0,1.95873E0,3.2306755E1,1.8625736E0,3.1492235E1,1.2286428E0,7.103529E0,1.4302549E0,2.0779655E1,1.1527101E1,1.9618332E1,1.1873903E1],"tree_param":{"num_deleted":"0","num_feature":"11","num_nodes":"19","size_leaf_vector":"1"}},{"base_weights":[1.2692646E-2,1.2383747E0,-2.8862256E-1,1.3650178E0,-0E0,-4.2463204E-1,1.2331457E-2,3.4442474E-3,1.4143826E-2,-2.6051328E-1,-1.4560702E-2,-1.1051175E-2,-1.6701424E-5],"categories":[],"categories_nodes":[],"categories_segments":[],"categories_sizes":[],"default_left":[0,0,0,0,0,0,0,0,0,0,0,0,0],"id":42,"left_children":[1,3,5,7,-1,9,-1,-1,-1,11,-1,-1,-1],"loss_changes":[3.127086E1,2.5370865E0,1.446047E1,9.892273E-2,0E0,1.0109183E1,0E0,0E0,0E0,1.2049529E1,0E0,0E0,0E0],"parents":[2147483647,0,0,1,1,2,2,3,3,5,5,9,9],"right_children":[2,4,6,8,-1,10,-1,-1,-1,12,-1,-1,-1],"split_conditions":[-7.9625434E-1,5.8159863E1,3.324629E0,4.3543175E1,-0E0,2.6708024E0,1.2331457E-2,3.4442474E-3,1.4143826E-2,5.0655174E1,-1.4560702E-2,-1.1051175E-2,-1.6701424E-5],"split_indices":[8,5,3,1,0,2,0,0,0,5,0,0,0],"split_type":[0,0,0,0,0,0,0,0,0,0,0,0,0],"sum_hessian":[8.2447266E1,1.5720758E1,6.672651E1,1.4123691E1,1.5970674E0,6.1974182E1,4.7523265E0,1.1131331E0,1.3010558E1,5.4631016E1,7.3431654E0,1.1957606E1,4.267341E1],"tree_param":{"num_deleted":"0","num_feature":"11","num_nodes":"13","size_leaf_vector":"1"}},{"base_weights":[2.7155636E-2,-4.459865E-1,7.183748E-1,7.522605E-1,-8.4270823E-1,1.059755E0,-6.105215E-1,1.0337807E0,-9.30927E-3,-9.883769E-1,1.155823E-2,1.2941225E0,4.5060262E-1,-1.3730157E-2,6.6121435E-3,1.2743457E-2,-3.6729046E-4,-4.6635014E-3,-1.3471199E-2,4.71847E-3,1.3722286E-2,1.0629958E-2,-1.2827555E-2],"categories":[],"categories_nodes":[],"categories_segments":[],"categories_sizes":[],"default_left":[0,0,0,0,0,0,0,0,0,0,0,0,0,0,0,0,0,0,0,0,0,0,0],"id":43,"left_children":[1,3,5,7,9,11,13,15,-1,17,-1,19,21,-1,-1,-1,-1,-1,-1,-1,-1,-1,-1],"loss_changes":[2.6046999E1,2.3071045E1,1.5390644E1,6.7540874E0,1.1600039E1,2.983368E0,7.9576883E0,2.9975471E0,0E0,5.5803146E0,0E0,3.415165E-1,1.0824234E1,0E0,0E0,0E0,0E0,0E0,0E0,0E0,0E0,0E0,0E0],"parents":[2147483647,0,0,1,1,2,2,3,3,4,4,5,5,6,6,7,7,9,9,11,11,12,12],"right_children":[2,4,6,8,10,12,14,16,-1,18,-1,20,22,-1,-1,-1,-1,-1,-1,-1,-1,-1,-1],"split_conditions":[7.539683E-2,4.7449574E1,5.6877502E1,2.2145024E-1,6.6275E1,5.7819443E1,1.2871938E0,1.2012044E0,-9.30927E-3,5.4068214E1,1.155823E-2,4.5917614E1,2.5223583E-1,-1.3730157E-2,6.6121435E-3,1.2743457E-2,-3.6729046E-4,-4.6635014E-3,-1.3471199E-2,4.71847E-3,1.3722286E-2,1.0629958E-2,-1.2827555E-2],"split_indices":[10,6,1,8,6,6,3,2,0,1,0,4,9,0,0,0,0,0,0,0,0,0,0],"split_type":[0,0,0,0,0,0,0,0,0,0,0,0,0,0,0,0,0,0,0,0,0,0,0],"sum_hessian":[7.758055E1,4.6180164E1,3.1400389E1,1.1200932E1,3.4979233E1,2.5203613E1,6.196776E0,9.977401E0,1.2235312E0,3.312063E1,1.858607E0,1.7270334E1,7.9332786E0,3.8733976E0,2.323378E0,8.067478E0,1.9099221E0,1.4540563E1,1.8580065E1,2.2200274E0,1.5050307E1,6.190586E0,1.7426926E0],"tree_param":{"num_deleted":"0","num_feature":"11","num_nodes":"23","size_leaf_vector":"1"}},{"base_weights":[1.0646861E-1,1.2662389E0,-1.8705817E-1,1.7336097E-3,1.3482779E0,-6.234264E-1,5.437442E-1,3.3824258E-3,1.3973663E-2,-1.1039915E0,-9.2265606E-2,-1.07385265E-2,6.788744E-1,-1.5378401E-2,6.5648055E-4,5.0353026E-3,-1.3735027E-2,8.302409E-3,-9.289075E-3],"categories":[],"categories_nodes":[],"categories_segments":[],"categories_sizes":[],"default_left":[0,0,0,0,0,0,0,0,0,0,0,0,0,0,0,0,0,0,0],"id":44,"left_children":[1,3,5,-1,7,9,11,-1,-1,13,15,-1,17,-1,-1,-1,-1,-1,-1],"loss_changes":[2.7611116E1,1.0822239E0,2.0986317E1,0E0,9.7435E-2,1.0263269E1,6.076675E0,0E0,0E0,1.109466E1,1.6580502E1,0E0,6.4597588E0,0E0,0E0,0E0,0E0,0E0,0E0],"parents":[2147483647,0,0,1,1,2,2,4,4,5,5,6,6,9,9,10,10,12,12],"right_children":[2,4,6,-1,8,10,12,-1,-1,14,16,-1,18,-1,-1,-1,-1,-1,-1],"split_conditions":[-7.9625434E-1,-1.6999276E0,8.569545E-2,1.7336097E-3,4.3543175E1,5.76323E1,-5.0161135E-1,3.3824258E-3,1.3973663E-2,3.295979E-2,1.7944378E0,-1.07385265E-2,5.9274006E1,-1.5378401E-2,6.5648055E-4,5.0353026E-3,-1.3735027E-2,8.302409E-3,-9.289075E-3],"split_indices":[8,8,10,0,1,4,8,0,0,10,2,0,1,0,0,0,0,0,0],"split_type":[0,0,0,0,0,0,0,0,0,0,0,0,0,0,0,0,0,0,0],"sum_hessian":[7.909532E1,1.5374615E1,6.3720707E1,1.3760281E0,1.3998587E1,4.0075222E1,2.3645487E1,1.108934E0,1.2889652E1,2.0374643E1,1.9700577E1,1.2303667E0,2.2415121E1,1.4694707E1,5.679937E0,1.3808397E1,5.8921795E0,2.0985247E1,1.429873E0],"tree_param":{"num_deleted":"0","num_feature":"11","num_nodes":"19","size_leaf_vector":"1"}},{"base_weights":[-1.2739892E-2,-4.776369E-1,8.708581E-1,7.7449757E-1,-8.374332E-1,1.1492203E0,-1.1890106E-2,1.0081494E0,-1.6464376E-3,-9.596815E-1,9.044243E-3,1.2358848E0,-0E0,1.8167808E-3,1.111868E-2,8.5969374E-4,-1.1386638E-2,1.3499971E-2,3.023078E-3],"categories":[],"categories_nodes":[],"categories_segments":[],"categories_sizes":[],"default_left":[0,0,0,0,0,0,0,0,0,0,0,0,0,0,0,0,0,0,0],"id":45,"left_children":[1,3,5,7,9,11,-1,13,-1,15,-1,17,-1,-1,-1,-1,-1,-1,-1],"loss_changes":[3.2009834E1,2.3711601E1,1.6745638E1,2.8574123E0,9.454456E0,2.480135E0,0E0,5.035286E-1,0E0,7.351246E0,0E0,1.8275337E0,0E0,0E0,0E0,0E0,0E0,0E0,0E0],"parents":[2147483647,0,0,1,1,2,2,3,3,4,4,5,5,7,7,9,9,11,11],"right_children":[2,4,6,8,10,12,-1,14,-1,16,-1,18,-1,-1,-1,-1,-1,-1,-1],"split_conditions":[1.0175438E-1,4.7449574E1,5.705139E1,1.2012044E0,6.6275E1,2.611951E0,-1.1890106E-2,4.1895832E1,-1.6464376E-3,-2.546361E0,9.044243E-3,5.5844788E1,-0E0,1.8167808E-3,1.111868E-2,8.5969374E-4,-1.1386638E-2,1.3499971E-2,3.023078E-3],"split_indices":[10,6,0,2,6,2,0,5,0,2,0,1,0,0,0,0,0,0,0],"split_type":[0,0,0,0,0,0,0,0,0,0,0,0,0,0,0,0,0,0,0],"sum_hessian":[7.600726E1,5.0178772E1,2.582849E1,1.0881011E1,3.9297764E1,2.318588E1,2.6426082E0,8.739647E0,2.1413639E0,3.719385E1,2.1039095E0,2.1536566E1,1.6493154E0,1.3888133E0,7.3508334E0,5.4302387E0,3.1763615E1,1.8697931E1,2.838634E0],"tree_param":{"num_deleted":"0","num_feature":"11","num_nodes":"19","size_leaf_vector":"1"}},{"base_weights":[4.3553773E-2,-4.0404618E-1,7.930982E-1,7.984111E-1,-7.727255E-1,9.913662E-1,-1.1471194E-2,1.0556217E0,-8.913155E-3,-8.4805325E-2,-1.1586146E0,1.2187767E0,2.4076995E-1,5.0873924E-3,1.3768001E-2,-5.2777E-3,5.7560448E-3,-0E0,-1.3782775E-2,6.5144044E-3,1.321019E-2,7.4574654E-3,-1.1853144E-2],"categories":[],"categories_nodes":[],"categories_segments":[],"categories_sizes":[],"default_left":[0,0,0,0,0,0,0,0,0,0,0,0,0,0,0,0,0,0,0,0,0,0,0],"id":46,"left_children":[1,3,5,7,9,11,-1,13,-1,15,17,19,21,-1,-1,-1,-1,-1,-1,-1,-1,-1,-1],"loss_changes":[2.8819561E1,2.4417202E1,1.3484659E1,6.6192493E0,1.0837725E1,4.6373196E0,0E0,1.1863756E0,0E0,5.0220017E0,6.823498E0,2.4601746E-1,6.791294E0,0E0,0E0,0E0,0E0,0E0,0E0,0E0,0E0,0E0,0E0],"parents":[2147483647,0,0,1,1,2,2,3,3,4,4,5,5,7,7,9,9,10,10,11,11,12,12],"right_children":[2,4,6,8,10,12,-1,14,-1,16,18,20,22,-1,-1,-1,-1,-1,-1,-1,-1,-1,-1],"split_conditions":[1.0175438E-1,4.7449574E1,5.7276215E1,2.0974827E0,5.379862E1,9.7351664E-1,-1.1471194E-2,5.2902893E1,-8.913155E-3,5.3197544E1,6.0508174E-1,1.3299663E-1,5.901984E1,5.0873924E-3,1.3768001E-2,-5.2777E-3,5.7560448E-3,-0E0,-1.3782775E-2,6.5144044E-3,1.321019E-2,7.4574654E-3,-1.1853144E-2],"split_indices":[10,6,0,2,0,2,0,0,0,0,3,10,6,0,0,0,0,0,0,0,0,0,0],"split_type":[0,0,0,0,0,0,0,0,0,0,0,0,0,0,0,0,0,0,0,0,0,0,0],"sum_hessian":[8.383023E1,5.2692043E1,3.113819E1,1.2027431E1,4.066461E1,2.8741701E1,2.3964884E0,1.0815538E1,1.2118928E0,1.5144893E1,2.551972E1,2.1477594E1,7.264107E0,5.0729556E0,5.7425823E0,9.275614E0,5.869279E0,4.1875706E0,2.1332148E1,4.5545063E0,1.6923088E1,5.7686257E0,1.4954817E0],"tree_param":{"num_deleted":"0","num_feature":"11","num_nodes":"23","size_leaf_vector":"1"}},{"base_weights":[-2.2659287E-2,1.1311021E0,-2.658212E-1,1.36805065E-2,1.8692705E-1,-7.862956E-2,-1.1905638E0,-1.2072317E-3,5.5354265E-3,6.673784E-1,-2.1924025E-1,4.681472E-3,-1.4402884E-2,1.1613286E-2,-9.466813E-3,1.575295E-3,-7.7236616E-3],"categories":[],"categories_nodes":[],"categories_segments":[],"categories_sizes":[],"default_left":[0,0,0,0,0,0,0,0,0,0,0,0,0,0,0,0,0],"id":47,"left_children":[1,3,5,-1,7,9,11,-1,-1,13,15,-1,-1,-1,-1,-1,-1],"loss_changes":[2.2460184E1,2.703289E0,1.126886E1,0E0,5.652961E-1,6.0134487E0,5.3333216E0,0E0,0E0,8.354212E0,1.0246219E1,0E0,0E0,0E0,0E0,0E0,0E0],"parents":[2147483647,0,0,1,1,2,2,4,4,5,5,6,6,9,9,10,10],"right_children":[2,4,6,-1,8,10,12,-1,-1,14,16,-1,-1,-1,-1,-1,-1],"split_conditions":[-7.9013556E-1,5.4014915E1,5.8059525E1,1.36805065E-2,5.768352E1,1.7643473E-1,5.1174812E1,-1.2072317E-3,5.5354265E-3,-4.813467E-1,5.4068214E1,4.681472E-3,-1.4402884E-2,1.1613286E-2,-9.466813E-3,1.575295E-3,-7.7236616E-3],"split_indices":[8,0,1,0,1,9,0,0,0,7,1,0,0,0,0,0,0],"split_type":[0,0,0,0,0,0,0,0,0,0,0,0,0,0,0,0,0],"sum_hessian":[7.829416E1,1.2921409E1,6.537275E1,9.885668E0,3.0357409E0,5.535969E1,1.0013056E1,1.8669825E0,1.1687584E0,8.072689E0,4.7287003E1,1.1433885E0,8.869667E0,6.4432964E0,1.6293925E0,2.844541E1,1.8841593E1],"tree_param":{"num_deleted":"0","num_feature":"11","num_nodes":"17","size_leaf_vector":"1"}},{"base_weights":[3.366745E-2,5.975924E-1,-4.982009E-1,-1.01051964E-1,9.185213E-1,-9.3221277E-1,2.657033E-1,-1.3311114E-2,6.581122E-1,-2.2751229E-1,1.108761E0,5.0112575E-1,-1.2210103E0,7.197094E-1,-1.2177708E-2,-2.901115E-3,1.0544927E-2,-1.0952018E-2,4.7722696E-3,1.3540596E-2,6.2277964E-3,1.3493038E-2,-9.730809E-3,-1.5152317E-2,7.842085E-3,-3.158083E-4,1.01680085E-2],"categories":[],"categories_nodes":[],"categories_segments":[],"categories_sizes":[],"default_left":[0,0,0,0,0,0,0,0,0,0,0,0,0,0,0,0,0,0,0,0,0,0,0,0,0,0,0],"id":48,"left_children":[1,3,5,7,9,11,13,-1,15,17,19,21,23,25,-1,-1,-1,-1,-1,-1,-1,-1,-1,-1,-1,-1,-1],"loss_changes":[2.4803556E1,9.185055E0,1.4399705E1,1.3505325E1,6.3870792E0,1.2024799E1,1.1661322E1,0E0,3.7415044E0,3.4605308E0,1.8237991E0,7.9093738E0,1.4920441E1,3.0316997E0,0E0,0E0,0E0,0E0,0E0,0E0,0E0,0E0,0E0,0E0,0E0,0E0,0E0],"parents":[2147483647,0,0,1,1,2,2,3,3,4,4,5,5,6,6,8,8,9,9,10,10,11,11,12,12,13,13],"right_children":[2,4,6,8,10,12,14,-1,16,18,20,22,24,26,-1,-1,-1,-1,-1,-1,-1,-1,-1,-1,-1,-1,-1],"split_conditions":[5.386004E1,-6.3079777E-3,7.539683E-2,2.6542974E-1,4.9846443E1,4.6809338E1,5.7276215E1,-1.3311114E-2,-1.3020328E0,1.1672474E-1,5.510084E1,1.2012044E0,6.504186E1,5.978673E1,-1.2177708E-2,-2.901115E-3,1.0544927E-2,-1.0952018E-2,4.7722696E-3,1.3540596E-2,6.2277964E-3,1.3493038E-2,-9.730809E-3,-1.5152317E-2,7.842085E-3,-3.158083E-4,1.01680085E-2],"split_indices":[0,10,10,9,5,6,0,0,2,10,6,2,4,6,0,0,0,0,0,0,0,0,0,0,0,0,0],"split_type":[0,0,0,0,0,0,0,0,0,0,0,0,0,0,0,0,0,0,0,0,0,0,0,0,0,0,0],"sum_hessian":[8.0671E1,3.9186794E1,4.1484203E1,1.2452318E1,2.6734476E1,2.6397215E1,1.5086988E1,4.515031E0,7.937287E0,3.703348E0,2.3031128E1,4.24538E0,2.2151834E1,1.1997501E1,3.0894866E0,2.3445227E0,5.5927644E0,1.4750632E0,2.2282846E0,1.3981811E1,9.049317E0,2.7917295E0,1.4536502E0,1.9574009E1,2.5778263E0,3.5577366E0,8.439765E0],"tree_param":{"num_deleted":"0","num_feature":"11","num_nodes":"27","size_leaf_vector":"1"}},{"base_weights":[-6.0958426E-2,4.9983922E-1,-6.0450035E-1,-3.2678106E-1,8.6816186E-1,7.773075E-1,-8.1018424E-1,1.3126963E-2,-9.012839E-1,1.0223584E0,1.0601798E-1,-2.1473924E-3,1.409346E-2,-1.150072E0,6.737707E-2,1.1232676E-2,-1.48334615E-2,1.1575606E-2,-1.891635E-3,-1.2729817E-2,1.1373214E-2,5.58637E-3,-1.2546716E-2,-1.2130169E-2,4.823986E-3],"categories":[],"categories_nodes":[],"categories_segments":[],"categories_sizes":[],"default_left":[0,0,0,0,0,0,0,0,0,0,0,0,0,0,0,0,0,0,0,0,0,0,0,0,0],"id":49,"left_children":[1,3,5,7,9,11,13,-1,15,17,19,-1,-1,21,23,-1,-1,-1,-1,-1,-1,-1,-1,-1,-1],"loss_changes":[2.4887499E1,1.2558324E1,1.24234295E1,1.3400324E1,3.0838013E0,4.0727167E0,1.1120918E1,0E0,1.3811151E1,4.1103935E0,9.906397E0,0E0,0E0,5.518303E0,6.4093323E0,0E0,0E0,0E0,0E0,0E0,0E0,0E0,0E0,0E0,0E0],"parents":[2147483647,0,0,1,1,2,2,3,3,4,4,5,5,6,6,8,8,9,9,10,10,13,13,14,14],"right_children":[2,4,6,8,10,12,14,-1,16,18,20,-1,-1,22,24,-1,-1,-1,-1,-1,-1,-1,-1,-1,-1],"split_conditions":[5.386004E1,-6.3079777E-3,-2.546361E0,-3.2608697E-1,5.901984E1,5.510084E1,1.0175438E-1,1.3126963E-2,-6.329802E-1,3.0192074E-1,6.1465385E1,-2.1473924E-3,1.409346E-2,-8.94852E-1,9.942119E-2,1.1232676E-2,-1.48334615E-2,1.1575606E-2,-1.891635E-3,-1.2729817E-2,1.1373214E-2,5.58637E-3,-1.2546716E-2,-1.2130169E-2,4.823986E-3],"split_indices":[0,10,2,10,6,4,10,0,8,8,6,0,0,8,2,0,0,0,0,0,0,0,0,0,0],"split_type":[0,0,0,0,0,0,0,0,0,0,0,0,0,0,0,0,0,0,0,0,0,0,0,0,0],"sum_hessian":[7.962175E1,3.9137836E1,4.0483917E1,1.201471E1,2.7123127E1,4.822241E0,3.5661674E1,2.7390902E0,9.2756195E0,2.21659E1,4.957227E0,2.0720224E0,2.7502184E0,2.5563942E1,1.0097733E1,1.8252735E0,7.4503465E0,2.0054913E1,2.1109865E0,1.979306E0,2.9779212E0,1.1691037E0,2.4394838E1,1.9421676E0,8.155565E0],"tree_param":{"num_deleted":"0","num_feature":"11","num_nodes":"25","size_leaf_vector":"1"}},{"base_weights":[4.9327356E-3,-4.8721057E-1,7.98015E-1,1.3670513E-2,-7.0719826E-1,9.807966E-1,-1.0821191E-2,3.7948036E-1,-9.932494E-1,5.6736284E-1,1.2901467E0,8.0990195E-3,-1.0425546E-2,1.2875147E-3,-1.203448E-2,8.241869E-3,-1.1109495E-2,1.4413052E-2,-0E0],"categories":[],"categories_nodes":[],"categories_segments":[],"categories_sizes":[],"default_left":[0,0,0,0,0,0,0,0,0,0,0,0,0,0,0,0,0,0,0],"id":50,"left_children":[1,3,5,-1,7,9,-1,11,13,15,17,-1,-1,-1,-1,-1,-1,-1,-1],"loss_changes":[3.1103662E1,2.0910587E1,1.1553268E1,0E0,1.4289152E1,2.717743E0,0E0,6.9026113E0,8.663792E0,6.959879E0,2.8529854E0,0E0,0E0,0E0,0E0,0E0,0E0,0E0,0E0],"parents":[2147483647,0,0,1,1,2,2,4,4,5,5,7,7,8,8,9,9,10,10],"right_children":[2,4,6,-1,8,10,-1,12,14,16,18,-1,-1,-1,-1,-1,-1,-1,-1],"split_conditions":[1.0175438E-1,-1.1693038E0,5.7276215E1,1.3670513E-2,4.7449574E1,5.661905E1,-1.0821191E-2,2.2145024E-1,5.2471245E1,5.4689655E1,6.2527397E1,8.0990195E-3,-1.0425546E-2,1.2875147E-3,-1.203448E-2,8.241869E-3,-1.1109495E-2,1.4413052E-2,-0E0],"split_indices":[10,8,0,0,6,5,0,8,0,5,5,0,0,0,0,0,0,0,0],"split_type":[0,0,0,0,0,0,0,0,0,0,0,0,0,0,0,0,0,0,0],"sum_hessian":[7.7613846E1,4.8053852E1,2.9559998E1,4.4952126E0,4.355864E1,2.7425306E1,2.1346898E0,8.935895E0,3.4622746E1,1.3089301E1,1.4336006E1,7.24405E0,1.691845E0,5.4489613E0,2.9173784E1,1.1845191E1,1.2441096E0,1.2661295E1,1.6747113E0],"tree_param":{"num_deleted":"0","num_feature":"11","num_nodes":"19","size_leaf_vector":"1"}},{"base_weights":[-6.496632E-3,-5.313216E-1,7.3934233E-1,7.043879E-1,-9.185028E-1,8.9736986E-1,-1.0723934E-2,1.0407046E0,-9.94383E-3,6.639558E-3,-1.0462974E0,1.0070157E0,-9.730903E-3,-0E0,1.2222308E-2,2.7997983E-3,-1.1975169E-2,-1.6508482E-5,1.1172015E-2],"categories":[],"categories_nodes":[],"categories_segments":[],"categories_sizes":[],"default_left":[0,0,0,0,0,0,0,0,0,0,0,0,0,0,0,0,0,0,0],"id":51,"left_children":[1,3,5,7,9,11,-1,13,-1,-1,15,17,-1,-1,-1,-1,-1,-1,-1],"loss_changes":[3.21695E1,2.3797203E1,1.0648054E1,7.91681E0,8.276964E0,7.498457E0,0E0,1.9209557E0,0E0,0E0,7.4392815E0,3.5087948E0,0E0,0E0,0E0,0E0,0E0,0E0,0E0],"parents":[2147483647,0,0,1,1,2,2,3,3,4,4,5,5,7,7,10,10,11,11],"right_children":[2,4,6,8,10,12,-1,14,-1,-1,16,18,-1,-1,-1,-1,-1,-1,-1],"split_conditions":[7.539683E-2,4.7449574E1,5.7276215E1,5.8159863E1,-1.1693038E0,6.025769E1,-1.0723934E-2,4.4194595E1,-9.94383E-3,6.639558E-3,4.6616104E1,4.6006187E1,-9.730903E-3,-0E0,1.2222308E-2,2.7997983E-3,-1.1975169E-2,-1.6508482E-5,1.1172015E-2],"split_indices":[10,6,0,5,8,4,0,5,0,0,4,4,0,0,0,0,0,0,0],"split_type":[0,0,0,0,0,0,0,0,0,0,0,0,0,0,0,0,0,0,0],"sum_hessian":[8.02331E1,4.7341778E1,3.289132E1,1.1037492E1,3.6304287E1,3.0767529E1,2.1237922E0,9.585944E0,1.4515474E0,2.3407834E0,3.3963505E1,2.9550377E1,1.2171508E0,1.6250397E0,7.9609046E0,3.321282E0,3.0642221E1,2.9177816E0,2.6632595E1],"tree_param":{"num_deleted":"0","num_feature":"11","num_nodes":"19","size_leaf_vector":"1"}},{"base_weights":[4.9401596E-2,-4.608033E-1,5.506453E-1,8.146566E-1,-8.7528914E-1,9.326729E-1,-1.6953658E-1,1.1497872E0,-9.077649E-3,2.0010853E-1,-1.0240391E0,1.1465133E0,3.082348E-2,4.2208704E-1,-1.5020775E-2,4.3224576E-3,1.3423814E-2,8.716479E-3,-8.686779E-3,1.08314955E-4,-1.2122718E-2,1.3234966E-2,4.387684E-3,-1.1432922E-2,8.177751E-3,9.8502515E-3,-1.1509561E-2],"categories":[],"categories_nodes":[],"categories_segments":[],"categories_sizes":[],"default_left":[0,0,0,0,0,0,0,0,0,0,0,0,0,0,0,0,0,0,0,0,0,0,0,0,0,0,0],"id":52,"left_children":[1,3,5,7,9,11,13,15,-1,17,19,21,23,25,-1,-1,-1,-1,-1,-1,-1,-1,-1,-1,-1,-1,-1],"loss_changes":[2.0967077E1,2.216511E1,1.162283E1,7.0760326E0,5.2715645E0,5.1099663E0,1.2648092E1,5.140848E-1,0E0,4.0166907E0,5.513031E0,1.991581E0,6.767734E0,1.102391E1,0E0,0E0,0E0,0E0,0E0,0E0,0E0,0E0,0E0,0E0,0E0,0E0,0E0],"parents":[2147483647,0,0,1,1,2,2,3,3,4,4,5,5,6,6,7,7,9,9,10,10,11,11,12,12,13,13],"right_children":[2,4,6,8,10,12,14,16,-1,18,20,22,24,26,-1,-1,-1,-1,-1,-1,-1,-1,-1,-1,-1,-1,-1],"split_conditions":[3.3333335E-2,4.6809338E1,5.901984E1,5.8159863E1,4.6616104E1,5.407412E1,2.385671E-1,5.2902893E1,-9.077649E-3,5.3258488E1,6.0508174E-1,5.661905E1,5.6935642E1,5.996498E1,-1.5020775E-2,4.3224576E-3,1.3423814E-2,8.716479E-3,-8.686779E-3,1.08314955E-4,-1.2122718E-2,1.3234966E-2,4.387684E-3,-1.1432922E-2,8.177751E-3,9.8502515E-3,-1.1509561E-2],"split_indices":[10,6,6,5,4,0,9,0,0,0,3,6,6,5,0,0,0,0,0,0,0,0,0,0,0,0,0],"split_type":[0,0,0,0,0,0,0,0,0,0,0,0,0,0,0,0,0,0,0,0,0,0,0,0,0,0,0],"sum_hessian":[7.9959564E1,3.9566685E1,4.0392876E1,9.408384E0,3.01583E1,2.629058E1,1.4102296E1,8.202873E0,1.2055117E0,3.5409863E0,2.6617315E1,2.094263E1,5.34795E0,1.0187455E1,3.9148405E0,2.5322232E0,5.6706495E0,2.3453634E0,1.1956229E0,4.159623E0,2.2457691E1,1.5944205E1,4.998426E0,1.9133648E0,3.4345853E0,7.824659E0,2.3627963E0],"tree_param":{"num_deleted":"0","num_feature":"11","num_nodes":"27","size_leaf_vector":"1"}},{"base_weights":[-1.5931694E-1,6.140584E-1,-4.7390276E-1,8.591827E-1,-5.8330446E-1,4.1425413E-1,-6.5610963E-1,1.0090305E0,9.395512E-2,4.280367E-3,-1.1122282E-2,-5.415772E-1,1.0264828E0,-1.2607244E0,-3.425644E-1,-0E0,1.1324437E-2,-1.0303179E-2,1.076429E-2,-1.1753936E-2,5.8927396E-3,3.0384964E-4,1.3523719E-2,5.9966855E-3,-1.4724248E-2,7.810743E-3,-5.1333695E-3],"categories":[],"categories_nodes":[],"categories_segments":[],"categories_sizes":[],"default_left":[0,0,0,0,0,0,0,0,0,0,0,0,0,0,0,0,0,0,0,0,0,0,0,0,0,0,0],"id":53,"left_children":[1,3,5,7,9,11,13,15,17,-1,-1,19,21,23,25,-1,-1,-1,-1,-1,-1,-1,-1,-1,-1,-1,-1],"loss_changes":[1.8455067E1,6.970604E0,8.997272E0,1.9382849E0,2.8211193E0,6.2646546E0,7.95685E0,1.989296E0,5.8333716E0,0E0,0E0,3.8815565E0,1.8674011E0,6.8456364E0,6.356849E0,0E0,0E0,0E0,0E0,0E0,0E0,0E0,0E0,0E0,0E0,0E0,0E0],"parents":[2147483647,0,0,1,1,2,2,3,3,4,4,5,5,6,6,7,7,8,8,11,11,12,12,13,13,14,14],"right_children":[2,4,6,8,10,12,14,16,18,-1,-1,20,22,24,26,-1,-1,-1,-1,-1,-1,-1,-1,-1,-1,-1,-1],"split_conditions":[-4.0953165E-1,5.7718445E1,4.7449574E1,5.7609707E1,5.3505775E1,2.700898E-1,5.553846E1,5.173366E1,6.2527397E1,4.280367E-3,-1.1122282E-2,5.5732582E1,5.4385246E1,-3.1980115E-1,5.219598E1,-0E0,1.1324437E-2,-1.0303179E-2,1.076429E-2,-1.1753936E-2,5.8927396E-3,3.0384964E-4,1.3523719E-2,5.9966855E-3,-1.4724248E-2,7.810743E-3,-5.1333695E-3],"split_indices":[8,4,6,6,0,9,6,0,6,0,0,0,4,8,0,0,0,0,0,0,0,0,0,0,0,0,0],"split_type":[0,0,0,0,0,0,0,0,0,0,0,0,0,0,0,0,0,0,0,0,0,0,0,0,0,0,0],"sum_hessian":[7.371684E1,2.0948175E1,5.2768665E1,1.7692183E1,3.2559924E0,8.672533E0,4.4096134E1,1.4419297E1,3.2728856E0,1.1186769E0,2.1373155E0,3.3673615E0,5.305171E0,1.3918E1,3.0178133E1,1.6264566E0,1.279284E1,1.456122E0,1.8167635E0,2.1893313E0,1.1780301E0,1.652945E0,3.6522262E0,1.1864707E0,1.2731529E1,3.4326766E0,2.6745457E1],"tree_param":{"num_deleted":"0","num_feature":"11","num_nodes":"27","size_leaf_vector":"1"}},{"base_weights":[1.352061E-1,-3.6962345E-1,8.13398E-1,6.177103E-1,-6.480459E-1,1.0388805E0,-1.195145E-2,1.0513581E0,-4.488539E-1,-7.711098E-1,1.1245093E-2,1.1230799E0,1.3856988E-1,9.114553E-4,1.2681788E-2,4.291634E-3,-1.0242083E-2,-9.125873E-3,6.628866E-3,1.2783127E-2,7.0019066E-3,1.0829704E-2,-1.0680552E-2],"categories":[],"categories_nodes":[],"categories_segments":[],"categories_sizes":[],"default_left":[0,0,0,0,0,0,0,0,0,0,0,0,0,0,0,0,0,0,0,0,0,0,0],"id":54,"left_children":[1,3,5,7,9,11,-1,13,15,17,-1,19,21,-1,-1,-1,-1,-1,-1,-1,-1,-1,-1],"loss_changes":[2.8964207E1,1.37422085E1,1.756073E1,5.669029E0,9.211954E0,2.220333E0,0E0,1.4685535E0,2.4412122E0,8.048939E0,0E0,8.726578E-1,5.7906404E0,0E0,0E0,0E0,0E0,0E0,0E0,0E0,0E0,0E0,0E0],"parents":[2147483647,0,0,1,1,2,2,3,3,4,4,5,5,7,7,8,8,9,9,11,11,12,12],"right_children":[2,4,6,8,10,12,-1,14,16,18,-1,20,22,-1,-1,-1,-1,-1,-1,-1,-1,-1,-1],"split_conditions":[7.539683E-2,4.7449574E1,5.7276215E1,1.2012044E0,6.6275E1,6.2527397E1,-1.195145E-2,5.0465797E1,-2.6188502E0,6.504186E1,1.1245093E-2,5.901984E1,1.6657144E-1,9.114553E-4,1.2681788E-2,4.291634E-3,-1.0242083E-2,-9.125873E-3,6.628866E-3,1.2783127E-2,7.0019066E-3,1.0829704E-2,-1.0680552E-2],"split_indices":[10,6,0,2,6,5,0,4,7,4,0,6,9,0,0,0,0,0,0,0,0,0,0],"split_type":[0,0,0,0,0,0,0,0,0,0,0,0,0,0,0,0,0,0,0,0,0,0,0],"sum_hessian":[8.259106E1,4.7523357E1,3.5067696E1,1.0106434E1,3.7416924E1,3.2007084E1,3.0606136E0,7.261884E0,2.844549E0,3.556886E1,1.8480651E0,2.8941856E1,3.065226E0,1.6843141E0,5.5775704E0,1.1578695E0,1.6866795E0,3.2769203E1,2.7996562E0,1.9517982E1,9.423875E0,1.8234246E0,1.2418014E0],"tree_param":{"num_deleted":"0","num_feature":"11","num_nodes":"23","size_leaf_vector":"1"}},{"base_weights":[5.3959247E-2,-4.5404246E-1,7.2190744E-1,8.004632E-1,-7.4108994E-1,8.9173466E-1,-1.1052166E-2,-2.6208726E-3,1.1734804E0,-1.2848663E-1,-1.1579777E0,1.2314446E0,4.761467E-1,1.9020232E-3,1.3646649E-2,-6.6686105E-3,1.0147428E-2,-1.2986328E-2,5.0256914E-3,1.3719648E-2,-3.017689E-4,-1.456455E-2,1.0214602E-2],"categories":[],"categories_nodes":[],"categories_segments":[],"categories_sizes":[],"default_left":[0,0,0,0,0,0,0,0,0,0,0,0,0,0,0,0,0,0,0,0,0,0,0],"id":55,"left_children":[1,3,5,7,9,11,-1,-1,13,15,17,19,21,-1,-1,-1,-1,-1,-1,-1,-1,-1,-1],"loss_changes":[2.730697E1,1.7024595E1,1.1757746E1,3.9323478E0,9.358496E0,3.8213463E0,0E0,0E0,8.728771E-1,1.079792E1,5.924366E0,3.2037926E0,1.8673834E1,0E0,0E0,0E0,0E0,0E0,0E0,0E0,0E0,0E0,0E0],"parents":[2147483647,0,0,1,1,2,2,3,3,4,4,5,5,8,8,9,9,10,10,11,11,12,12],"right_children":[2,4,6,8,10,12,-1,-1,14,16,18,20,22,-1,-1,-1,-1,-1,-1,-1,-1,-1,-1],"split_conditions":[7.539683E-2,4.5685936E1,5.7276215E1,5.6971016E1,5.379862E1,5.7237038E1,-1.1052166E-2,-2.6208726E-3,9.6965915E-1,5.3440548E1,6.6275E1,2.6708024E0,1.3576367E-1,1.9020232E-3,1.3646649E-2,-6.6686105E-3,1.0147428E-2,-1.2986328E-2,5.0256914E-3,1.3719648E-2,-3.017689E-4,-1.456455E-2,1.0214602E-2],"split_indices":[10,6,0,4,0,6,0,0,3,0,4,2,10,0,0,0,0,0,0,0,0,0,0],"split_type":[0,0,0,0,0,0,0,0,0,0,0,0,0,0,0,0,0,0,0,0,0,0,0],"sum_hessian":[7.843092E1,4.4646202E1,3.3784718E1,7.915499E0,3.67307E1,3.1430042E1,2.354677E0,2.064373E0,5.851126E0,1.5500821E1,2.1229881E1,1.6081192E1,1.5348849E1,1.3623523E0,4.488774E0,1.08809E1,4.6199207E0,1.9828497E1,1.4013846E0,1.4462185E1,1.6190071E0,2.9697516E0,1.2379098E1],"tree_param":{"num_deleted":"0","num_feature":"11","num_nodes":"23","size_leaf_vector":"1"}},{"base_weights":[4.1561265E-2,-3.4099698E-1,7.239241E-1,-1.5408494E-2,-1.168762E0,9.288091E-1,-1.0654442E-2,8.96835E-1,-2.6518494E-1,-1.4237968E-2,7.3234355E-3,1.0941283E0,1.3593288E-1,-2.168773E-3,1.3824586E-2,-4.655074E-3,6.48827E-3,-0E0,1.1917766E-2,-1.2700505E-2,1.1749064E-2],"categories":[],"categories_nodes":[],"categories_segments":[],"categories_sizes":[],"default_left":[0,0,0,0,0,0,0,0,0,0,0,0,0,0,0,0,0,0,0,0,0],"id":56,"left_children":[1,3,5,7,9,11,-1,13,15,-1,-1,17,19,-1,-1,-1,-1,-1,-1,-1,-1],"loss_changes":[1.9107565E1,1.2473404E1,1.062401E1,8.076702E0,7.4672527E0,2.8999958E0,0E0,4.524959E0,5.425663E0,0E0,0E0,2.064045E0,9.401617E0,0E0,0E0,0E0,0E0,0E0,0E0,0E0,0E0],"parents":[2147483647,0,0,1,1,2,2,3,3,4,4,5,5,7,7,8,8,11,11,12,12],"right_children":[2,4,6,8,10,12,-1,14,16,-1,-1,18,20,-1,-1,-1,-1,-1,-1,-1,-1],"split_conditions":[9.876543E-2,5.8159863E1,5.7276215E1,-6.329802E-1,1.647609E0,1.7758732E-1,-1.0654442E-2,-2.7087955E0,5.6192028E1,-1.4237968E-2,7.3234355E-3,6.89491E-1,5.681818E1,-2.168773E-3,1.3824586E-2,-4.655074E-3,6.48827E-3,-0E0,1.1917766E-2,-1.2700505E-2,1.1749064E-2],"split_indices":[10,5,0,8,3,8,0,2,0,0,0,3,5,0,0,0,0,0,0,0,0],"split_type":[0,0,0,0,0,0,0,0,0,0,0,0,0,0,0,0,0,0,0,0,0],"sum_hessian":[7.1104515E1,4.578785E1,2.5316668E1,3.3679832E1,1.2108017E1,2.3197355E1,2.1193128E0,6.5965905E0,2.708324E1,1.0943595E1,1.1644224E0,1.8776318E1,4.421037E0,2.108504E0,4.4880867E0,2.2706747E1,4.376494E0,1.654773E0,1.7121544E1,1.7432879E0,2.6777494E0],"tree_param":{"num_deleted":"0","num_feature":"11","num_nodes":"21","size_leaf_vector":"1"}},{"base_weights":[3.5572857E-2,-4.8744816E-1,7.4093246E-1,6.431646E-1,-8.557513E-1,1.0245893E0,-8.237341E-1,1.1008676E0,-5.162587E-1,-1.4761585E-2,-3.9441752E-1,1.2388947E0,4.4616842E-1,-1.2558024E-2,3.0266547E-3,3.0142064E-3,1.3926993E-2,-1.1016644E-2,4.790374E-3,4.1458983E-4,-1.3073021E-2,1.359534E-2,6.263129E-3,1.0213751E-2,-7.0161805E-3],"categories":[],"categories_nodes":[],"categories_segments":[],"categories_sizes":[],"default_left":[0,0,0,0,0,0,0,0,0,0,0,0,0,0,0,0,0,0,0,0,0,0,0,0,0],"id":57,"left_children":[1,3,5,7,9,11,13,15,17,-1,19,21,23,-1,-1,-1,-1,-1,-1,-1,-1,-1,-1,-1,-1],"loss_changes":[3.060417E1,2.0374113E1,1.6554945E1,7.095246E0,9.639273E0,3.0505104E0,3.3593926E0,1.5386038E0,2.9607427E0,0E0,9.05966E0,5.3975296E-1,7.2944717E0,0E0,0E0,0E0,0E0,0E0,0E0,0E0,0E0,0E0,0E0,0E0,0E0],"parents":[2147483647,0,0,1,1,2,2,3,3,4,4,5,5,6,6,7,7,8,8,10,10,11,11,12,12],"right_children":[2,4,6,8,10,12,14,16,18,-1,20,22,24,-1,-1,-1,-1,-1,-1,-1,-1,-1,-1,-1,-1],"split_conditions":[7.539683E-2,4.7449574E1,5.625294E1,1.2012044E0,5.553846E1,5.901984E1,-2.213214E-1,-1.187291E-1,1.1059058E0,-1.4761585E-2,5.7627815E1,5.3573658E1,2.5223583E-1,-1.2558024E-2,3.0266547E-3,3.0142064E-3,1.3926993E-2,-1.1016644E-2,4.790374E-3,4.1458983E-4,-1.3073021E-2,1.359534E-2,6.263129E-3,1.0213751E-2,-7.0161805E-3],"split_indices":[10,6,0,2,6,6,7,10,3,0,1,0,9,0,0,0,0,0,0,0,0,0,0,0,0],"split_type":[0,0,0,0,0,0,0,0,0,0,0,0,0,0,0,0,0,0,0,0,0,0,0,0,0],"sum_hessian":[8.090888E1,4.6555416E1,3.435347E1,1.1189182E1,3.5366234E1,2.9427643E1,4.925825E0,8.120302E0,3.0688806E0,1.4052173E1,2.1314062E1,2.0512865E1,8.914778E0,3.5413268E0,1.3844984E0,2.8068113E0,5.3134904E0,1.9283059E0,1.1405747E0,1.4997989E1,6.3160725E0,1.5982704E1,4.530162E0,6.07006E0,2.8447175E0],"tree_param":{"num_deleted":"0","num_feature":"11","num_nodes":"25","size_leaf_vector":"1"}},{"base_weights":[4.4942528E-2,-6.008664E-1,7.619858E-1,-7.1864545E-1,8.064816E-3,9.202674E-1,-1.0834603E-2,-4.0754038E-1,-1.3801039E-2,1.2117383E0,5.487323E-1,-9.391676E-3,2.7855432E-3,1.3310815E-2,-0E0,-1.1426312E-2,7.86578E-3],"categories":[],"categories_nodes":[],"categories_segments":[],"categories_sizes":[],"default_left":[0,0,0,0,0,0,0,0,0,0,0,0,0,0,0,0,0],"id":58,"left_children":[1,3,5,7,-1,9,-1,11,-1,13,15,-1,-1,-1,-1,-1,-1],"loss_changes":[3.6077137E1,7.356407E0,1.17730465E1,7.154747E0,0E0,2.9080124E0,0E0,1.04013195E1,0E0,2.668747E0,7.781558E0,0E0,0E0,0E0,0E0,0E0,0E0],"parents":[2147483647,0,0,1,1,2,2,3,3,5,5,7,7,9,9,10,10],"right_children":[2,4,6,8,-1,10,-1,12,-1,14,16,-1,-1,-1,-1,-1,-1],"split_conditions":[6.1373875E-2,6.504186E1,5.7276215E1,5.6556873E1,8.064816E-3,5.2601246E1,-1.0834603E-2,5.7340965E1,-1.3801039E-2,-1.3700979E0,-3.628078E-2,-9.391676E-3,2.7855432E-3,1.3310815E-2,-0E0,-1.1426312E-2,7.86578E-3],"split_indices":[10,4,0,1,0,1,0,4,0,7,2,0,0,0,0,0,0],"split_type":[0,0,0,0,0,0,0,0,0,0,0,0,0,0,0,0,0],"sum_hessian":[7.58846E1,3.9937355E1,3.594724E1,3.7370304E1,2.5670521E0,3.3619274E1,2.327965E0,2.6618212E1,1.0752091E1,1.7421465E1,1.6197807E1,1.4871656E1,1.1746556E1,1.5772509E1,1.6489562E0,1.4761457E0,1.47216625E1],"tree_param":{"num_deleted":"0","num_feature":"11","num_nodes":"17","size_leaf_vector":"1"}},{"base_weights":[-1.4771345E-2,1.1198131E0,-3.0262154E-1,1.2855548E0,-1.2302817E-3,2.0887545E-1,-7.027617E-1,3.1911904E-1,1.4446772E-2,-1.16000466E-1,8.3249205E-1,7.685746E-1,-8.8947755E-1,4.0619047E-3,5.7324336E-4,-5.824729E-3,7.7097523E-3,1.3307057E-2,1.4190541E-3,-0E0,1.294097E-2,-2.4154775E-3,-1.1443586E-2],"categories":[],"categories_nodes":[],"categories_segments":[],"categories_sizes":[],"default_left":[0,0,0,0,0,0,0,0,0,0,0,0,0,0,0,0,0,0,0,0,0,0,0],"id":59,"left_children":[1,3,5,7,-1,9,11,13,-1,15,17,19,21,-1,-1,-1,-1,-1,-1,-1,-1,-1,-1],"loss_changes":[2.6521782E1,3.656105E0,1.3500567E1,1.614481E0,0E0,6.0826693E0,1.0808483E1,8.835882E-3,0E0,8.6912155E0,3.1825595E0,1.9824142E0,5.066065E0,0E0,0E0,0E0,0E0,0E0,0E0,0E0,0E0,0E0,0E0],"parents":[2147483647,0,0,1,1,2,2,3,3,5,5,6,6,7,7,9,9,10,10,11,11,12,12],"right_children":[2,4,6,8,-1,10,12,14,-1,16,18,20,22,-1,-1,-1,